tree
version=v4
num_class=1
num_tree_per_iteration=1
label_index=0
max_feature_idx=94
objective=binary sigmoid:1
feature_names=num__src_port num__dst_port num__duration num__src_bytes num__dst_bytes num__missed_bytes num__src_pkts num__src_ip_bytes num__dst_pkts num__dst_ip_bytes num__dns_qclass num__dns_qtype num__dns_rcode num__http_request_body_len num__http_response_body_len num__http_status_code cat__proto_icmp cat__proto_tcp cat__proto_udp cat__service_dce_rpc cat__service_dns cat__service_ftp cat__service_gssapi cat__service_http cat__service_smb cat__service_smb;gssapi cat__service_ssl cat__conn_state_OTH cat__conn_state_REJ cat__conn_state_RSTO cat__conn_state_RSTOS0 cat__conn_state_RSTR cat__conn_state_RSTRH cat__conn_state_S0 cat__conn_state_S1 cat__conn_state_S2 cat__conn_state_S3 cat__conn_state_SF cat__conn_state_SH cat__conn_state_SHR cat__dns_AA_F cat__dns_AA_T cat__dns_RD_F cat__dns_RD_T cat__dns_RA_F cat__dns_RA_T cat__dns_rejected_F cat__dns_rejected_T cat__ssl_version_TLSv10 cat__ssl_version_TLSv12 cat__ssl_version_TLSv13 cat__ssl_cipher_TLS_AES_128_GCM_SHA256 cat__ssl_cipher_TLS_ECDHE_ECDSA_WITH_AES_128_GCM_SHA256 cat__ssl_cipher_TLS_ECDHE_RSA_WITH_AES_128_GCM_SHA256 cat__ssl_cipher_TLS_ECDHE_RSA_WITH_AES_256_CBC_SHA cat__ssl_cipher_TLS_ECDHE_RSA_WITH_AES_256_GCM_SHA384 cat__ssl_resumed_F cat__ssl_resumed_T cat__ssl_established_F cat__ssl_established_T cat__http_trans_depth_1 cat__http_trans_depth_10 cat__http_trans_depth_2 cat__http_trans_depth_3 cat__http_trans_depth_4 cat__http_trans_depth_5 cat__http_trans_depth_7 cat__http_trans_depth_8 cat__http_trans_depth_9 cat__http_method_GET cat__http_method_HEAD cat__http_method_POST cat__http_orig_mime_types_application/soap+xml cat__http_orig_mime_types_application/xml cat__http_resp_mime_types_application/ocsp-response cat__http_resp_mime_types_application/vnd.ms-cab-compressed cat__http_resp_mime_types_application/x-debian-package cat__http_resp_mime_types_application/xml cat__http_resp_mime_types_image/jpeg cat__http_resp_mime_types_image/png cat__http_resp_mime_types_text/html cat__http_resp_mime_types_text/json cat__http_resp_mime_types_text/plain cat__weird_name_DNS_RR_unknown_type cat__weird_name_above_hole_data_without_any_acks cat__weird_name_active_connection_reuse cat__weird_name_bad_TCP_checksum cat__weird_name_bad_UDP_checksum cat__weird_name_connection_originator_SYN_ack cat__weird_name_data_before_established cat__weird_name_dnp3_corrupt_header_checksum cat__weird_name_inappropriate_FIN cat__weird_name_possible_split_routing cat__weird_addl_46 cat__weird_addl_48
feature_infos=[-2.1082449548926521:1.3720162267995262] [-0.30644944960194864:9.081547702415655] [-0.01408024973246998:143.30706346489666] [-0.015465733478765823:214.29188772747219] [-0.014742382138961533:199.1049063401762] [-0.0070443264802431699:306.27261706311998] [-0.10854899875077002:250.41839396825398] [-0.034788948053163231:259.19425313950399] [-0.011687368904917882:376.94288697564633] [-0.041862545508154277:201.26043117080317] [-0.087871925841067844:11.387943031116173] [-0.15724359751274905:10.030044793194536] [-0.21867584547187904:7.7244961824564777] none [-0.0051996603785823313:376.46218592214927] [-0.039096624627580463:45.560385090861374] [0:1] [0:1] [0:1] [0:1] [0:1] [0:1] [0:1] [0:1] [0:1] none [0:1] [0:1] [0:1] [0:1] [0:1] [0:1] [0:1] [0:1] [0:1] [0:1] [0:1] [0:1] [0:1] [0:1] [0:1] [0:1] [0:1] [0:1] [0:1] [0:1] [0:1] [0:1] none [0:1] [0:1] [0:1] none [0:1] none none [0:1] [0:1] [0:1] [0:1] [0:1] none [0:1] none none none none none none none none none none none none [0:1] none [0:1] none none [0:1] none none [0:1] none [0:1] none [0:1] none [0:1] none none none none none
tree_sizes=3345 3490 3483 3495 3479 3484 3500 3485 3495 3488 3496 3494 3515 3507 3500 3497 3507 3503 3520 3496 3520 3527 3497 3508 3499 3507 3497 3486 3483 3521 3508 3494 3497 3499 3499 3509 3526 3497 3504 3522 3528 3505 3512 3513 3504 3505 3501 3524 3535 3522 3528 3521 3522 3516 3513 3513 3505 3499 3509 3514 3521 3503 3510 3517 3507 3525 3523 3534 3508 3504 3518 3529 3494 3514 3523 3522 3528 3528 3526 3532 3536 3518 3517 3501 3516 3534 3531 3532 3514 3514 3527 3543 3539 3531 3523 3533 3549 3528 3535 3524 3529 3516 3525 3546 3531 3507 3534 3538 3528 3521 3532 3544 3527 3523 3546 3537 3539 3529 3537 3540 3519 3560 3520 3544 3505 3539 3529 3521 3504 3532 3529 3575 3561 3557 3548 3568 3534 3553 3556 3558 3560 3526 3565 3519 3516 3560 3555 3549 3530 3538 3529 3537 3530 3522 3544 3569 3550 3524 3554 3536 3549 3512 3548 3585 3563 3506 3566 3546 3523 3563 3524 3524 3560 3530 3537 3579 3577 3520 3557 3530 3555 3531 3561 3561 3546 3540 3532 3543 3508 3549 3541 3583 3584 3550 3557 3535 3545 3546 3543 3550 3548 3554 3563 3597 3549 3582 3576 3531 3542 3571 3522 3529 3564 3527 3567 3528 3580 3546 3538 3564 3545 3560 3561 3524 3562 3562 3580 3526 3567 3502 3545 3569 3526 3535 3572 3594 3553 3544 3536 3573 3589 3579 3539 3515 3538 3561 3549 3541 3580 3539 3527 3572 3537 3538 3564 3540 3544 3546 3566 3576 3588 3581 3584 3555 3560 3564 3581 3571 3513 3545 3591 3548 3577 3522 3554 3565 3504 3550 3563 3528 3557 3529 3548 3570 3555 3577 3601 3585 3593 3542 3559 3494 3550 3546 3515 3587 3598 3564 3579 3578 3522 3586 3545 3582 3568 3556 3575 3574 3560 3576 3561 3558 3589 3572 3589 3579 3551 3560 3556 3583 3608 3568 3563 3572 3589 3555 3588 3519 3603 3596 3516 3615 3587 3579 3578 3558 3591 3525 3592 3520 3594 3583 3578 3559 3571 3579 3558 3600 3576 3603 3525 3584 3568 3534 3603 3592 3622 3607 3536 3601 3527 3556 3590 3593 3598 3539 3596 3598 3552 3552 3579 3589 3591 3507 3539 3583 3563 3593 3578 3575 3571 3566 3571 3539 3598 3547 3578 3612 3615 3595 3597 3609 3583 3557 3612 3548 3548 3609 3567 3583

Tree=0
num_leaves=31
num_cat=0
split_feature=17 6 46 44 6 2 15 50 8 89 4 4 7 56 5 80 7 8 0 5 6 5 0 6 11 6 6 33 2 7
split_gain=66716.7 40672.6 18716.7 12791.5 1469.44 1216.75 723.035 713.535 631.2 377.395 214.58 927.679 376.268 178.896 171.607 170.974 165.838 163.744 153.512 131.88 95.2843 107.314 86.9311 57.1093 56.4769 88.7788 53.6328 49.005 40.4611 87.0968
threshold=1.0000000180025095e-35 0.91398918783023075 1.0000000180025095e-35 1.0000000180025095e-35 1.1225666288741165 -0.013930243414361059 1.0000000180025095e-35 1.0000000180025095e-35 -0.0070504770914588026 1.0000000180025095e-35 -0.014558085273784046 -0.01453994812197293 0.013121297028579941 1.0000000180025095e-35 0.054755385192802784 1.0000000180025095e-35 -0.032841538671989093 0.01149709016237751 1.1413939502152606 -0.0067288853253050949 1.0000000180025095e-35 -0.0069434183411504133 -2.1025086108412698 0.0084578584201902493 0.20230775745339041 -0.093287234771949099 0.28316961003896662 1.0000000180025095e-35 -0.014080235173064774 -0.031788347884211247
decision_type=2 2 2 2 2 2 2 2 2 2 2 2 2 2 2 2 2 2 2 2 2 2 2 2 2 2 2 2 2 2
left_child=2 6 -1 5 27 18 7 9 -7 10 13 12 17 -2 -6 -8 -13 -12 24 -14 -18 -22 23 -5 -4 -26 -23 -3 29 -24
right_child=1 4 3 22 14 8 15 -9 -10 -11 11 16 19 -15 -16 -17 20 -19 -20 -21 21 26 28 -25 25 -27 -28 -29 -30 -31
leaf_value=1.3247402625183153 1.0349784807591151 1.223933416832643 1.3211060316332335 1.0982760399897016 1.3164204237593722 1.0428159781075648 1.0420257511021838 1.0349784807591151 1.3088483881045523 1.0349784807591151 1.2475799013699731 1.0349784807591151 1.3078524450452693 1.3246398339683916 1.0349784807591151 1.3256783824106964 1.3240356388434971 1.0380492543681108 1.0349784807591151 1.052078474973914 1.2920526475181628 1.053147224612339 1.0370722253123299 1.3014533906063979 1.0349784807591154 1.3256783824106964 1.284149825031899 1.0349784807591151 1.0363512744488752 1.0750826592644018
leaf_weight=852.7694536447525 5.3319590687751761 3.4399735927581778 492.08822244405746 21.327836275100712 54.007585406303406 70.175461292266846 28.379782140254974 21.499834954738617 32.679749131202698 11.351912856101988 11.523911535739897 5.1599603891372672 36.463720083236694 18150.332667469978 6.0199537873268119 6.5359498262405387 760.92215871810913 48.847625017166138 4.8159630298614493 5.8479551076889029 46.095646142959595 8.2559366226196271 453.73251688480377 4.1279683113098136 4.4719656705856323 6.3639511466026288 3.6119722723960868 1367.0455057621002 3460.0974382758141 225.66226768493652
leaf_count=4958 31 20 2861 124 314 408 165 125 190 66 67 30 212 105526 35 38 4424 284 28 34 268 48 2638 24 26 37 21 7948 20117 1312
internal_value=1.26152 1.30323 1.10897 1.07044 1.04606 1.28416 1.32245 1.32286 1.12734 1.32319 1.32336 1.29989 1.15817 1.32455 1.2882 1.09512 1.31755 1.07805 1.31593 1.2725 1.31933 1.25753 1.03911 1.13122 1.31862 1.20571 1.12345 1.03545 1.03854 1.0497
internal_weight=26209 20580.7 5628.31 4775.54 1430.51 610.595 19150.2 19115.2 102.855 19093.7 19082.4 926.729 102.683 18155.7 60.0275 34.9157 824.046 60.3715 507.74 42.3117 818.886 57.9636 4164.95 25.4558 502.924 10.8359 11.8679 1370.49 4139.49 679.395
internal_count=152379 119656 32723 27765 8317 3550 111339 111136 598 111011 110945 5388 597 105557 349 203 4791 351 2952 246 4761 337 24215 148 2924 63 69 7968 24067 3950
is_linear=0
shrinkage=1


Tree=1
num_leaves=31
num_cat=0
split_feature=18 6 37 4 8 6 53 15 0 12 89 85 4 4 2 57 5 7 26 80 2 5 0 27 6 5 44 3 44 6
split_gain=56354.4 34495.3 12683.6 5166.52 6829.03 1104.93 662.125 638.222 523.162 404.298 322.571 207.353 198.105 840.027 304.452 153.205 144.331 136.499 131.145 130.165 129.464 95.546 85.6943 280.552 80.7346 76.8274 69.1893 65.9443 61.5591 38.171
threshold=1.0000000180025095e-35 0.94451271578787244 1.0000000180025095e-35 -0.014738948035883692 -0.0070504770914588026 1.1225666288741165 1.0000000180025095e-35 1.0000000180025095e-35 -0.36474160620153734 3.7529101684923001 1.0000000180025095e-35 1.0000000180025095e-35 -0.014558085273784046 -0.01453994812197293 0.16547970921548791 1.0000000180025095e-35 0.054755385192802784 -0.032424236661737493 1.0000000180025095e-35 1.0000000180025095e-35 -0.013930243414361059 -0.0069383811918176325 -2.1075810261830008 1.0000000180025095e-35 1.0000000180025095e-35 -0.0069434183411504133 1.0000000180025095e-35 -0.015456232220745448 1.0000000180025095e-35 0.28316961003896662
decision_type=2 2 2 2 2 2 2 2 2 2 2 2 2 2 2 2 2 2 2 2 2 2 2 2 2 2 2 2 2 2
left_child=1 6 9 8 -5 -3 -1 10 -4 26 11 12 15 14 18 22 -7 -15 -14 -9 -10 -20 23 -8 -19 -26 -2 -6 -29 -27
right_child=2 5 3 4 27 16 7 19 20 -11 -12 -13 13 17 -16 -17 -18 24 21 -21 -22 -23 -24 -25 25 29 -28 28 -30 -31
leaf_value=-0.18917124241999639 0.024136923176201586 -0.19042617447523247 -0.18004331388295436 -0.18731945571338582 0.060143967179847282 0.054157035116208653 0.063294932603396178 -0.18545959598848685 0.062559755992908431 0.03080297741283778 -0.19075227724200247 -0.23804152685109972 -0.1799323183649974 -0.1735370031697224 0.052718706816523291 -0.19075227724200247 -0.19075227724200247 0.062074570886687643 0.031482120442301635 0.06328113641211959 -0.10463669159774724 -0.1916207419065761 0.062307892948090839 -0.12690754775089075 0.029661489629119617 -0.17470616660109575 -0.18861286349453588 0.0547241349730542 -0.17755484212057959 0.021783710184853613
leaf_weight=26.682256162166595 3.8253323137760153 1540.3907001018524 23.22383588552475 819.72188538312912 427.97642946243286 54.031156212091446 79.811120107769966 31.806042641401291 876.60326932370663 21.149331986904144 12.765267133712767 5.8074619621038428 59.031351417303085 6.4389090836048117 27.067699059844017 5.9958072900772086 6.7694598436355582 732.66050046682358 15.442429512739183 6.3014466166496268 11.733039140701292 6.9626208394765845 17424.100006103516 25.608127415180206 45.48446923494339 8.0529237985610944 3876.4393723756075 5.693198025226593 5.7164964079856855 3.5662840604782096
leaf_count=139 23 7966 121 4255 2568 324 481 165 5272 125 66 35 309 34 160 31 35 4414 91 38 65 37 105010 138 269 42 20081 34 30 21
internal_value=0.000195106 0.0404773 -0.133313 -0.0364321 -0.102067 -0.182174 0.0597234 0.0600824 0.0542269 -0.187215 0.0605044 0.0606783 0.0607724 0.0379564 -0.0925559 0.0619495 0.0268892 0.0557422 -0.140842 -0.144328 0.0603514 -0.0378496 0.062036 0.0170915 0.0576115 0.000348989 -0.188403 0.0569812 -0.0616525 -0.114398
internal_weight=26196.9 20124.8 6072.08 2170.67 1259.11 1601.19 18523.6 18496.9 911.56 3901.41 18458.8 18446 18440.2 904.707 108.504 17535.5 60.8006 796.203 81.4364 38.1075 888.336 22.4051 17529.5 105.419 789.764 57.1037 3880.26 439.386 11.4097 11.6192
internal_count=152379 119805 32574 12345 6887 8325 111480 111341 5458 20229 111138 111072 111037 5377 597 105660 359 4780 437 203 5337 128 105629 619 4746 332 20104 2632 64 63
is_linear=0
shrinkage=0.05


Tree=2
num_leaves=31
num_cat=0
split_feature=17 6 46 44 2 6 15 50 83 1 9 8 26 5 8 20 59 80 11 3 3 1 6 4 6 7 7 2 2 1
split_gain=49077.4 30226.8 11817.2 7307.24 949.212 819.796 572.176 537.563 519.598 385.404 1396.06 385.016 173.46 157.774 127.948 123.464 122.146 104.008 79.0115 71.4468 65.9997 42.6354 40.0473 37.7723 37.5774 29.3608 26.7946 24.815 56.1383 44.9723
threshold=1.0000000180025095e-35 0.91398918783023075 1.0000000180025095e-35 1.0000000180025095e-35 -0.013930243414361059 1.1225666288741165 1.0000000180025095e-35 1.0000000180025095e-35 1.0000000180025095e-35 4.3948625492726174 -0.040406588269244918 -0.0070504770914588026 1.0000000180025095e-35 -0.0067908174892327275 0.042409702252104699 1.0000000180025095e-35 1.0000000180025095e-35 1.0000000180025095e-35 0.20230775745339041 -0.015462566392759032 -0.015372235591869695 -0.29892092606366333 0.0084578584201902493 -0.014545315497894592 -0.083112725452735167 -0.032305007515951327 -0.033139611536454519 -0.014080235173064774 -0.014080248966185495 -1.0000000180025095e-35
decision_type=2 2 2 2 2 2 2 2 2 2 2 2 2 2 2 2 2 2 2 2 2 2 2 2 2 2 2 2 2 2
left_child=2 6 24 4 18 -3 7 8 -2 12 26 -6 14 16 -10 -7 -14 -8 25 -20 -16 22 -5 -12 -1 -4 -11 28 -23 -30
right_child=1 5 3 21 11 15 17 -9 9 10 23 -13 13 -15 20 -17 -18 -19 19 -21 -22 27 -24 -25 -26 -27 -28 -29 29 -31
leaf_value=0.06226375620650007 -0.17883749372358479 -0.16602162056848105 -0.036207484166497182 -0.12742329317467355 -0.16156258992276507 -0.143666207207375 -0.16195945459898817 -0.16649289496115952 0.061816000718340029 -0.017896818050540952 -0.25013071114146762 0.044839274731390412 0.040665403227588409 -0.1351298796726699 -0.1240427432346986 0.056567732213289312 -0.16355627196764264 0.062466728854271125 -0.17003717984962652 0.062505904077283861 0.040113634504989809 -0.15777806547700013 0.040371127326106759 -0.16827498958124285 -0.096729237557258888 0.057696891788563437 0.06102584640190354 -0.16576855477479896 0.039456541532275173 -0.17132741494570969
leaf_weight=790.25802797079086 22.767104774713516 1674.7389926165342 8.478689566254614 24.700597286224369 85.283822298049927 9.1356265246868116 34.5211561024189 26.265643537044525 17258.435927584767 11.195609420537947 19.512347847223282 30.736930072307587 98.272182449698448 17.871057108044624 13.900623351335527 48.937396243214607 7.9111730158329001 6.0702785849571219 7.4694316387176514 5.921676501631735 10.943492710590361 813.8486879914999 4.1539916992187491 50.746651649475098 3.7338598370552054 456.51691338419914 272.85299530625343 4221.1846998482943 6.5256074815988541 4.133378863334654
leaf_count=4936 115 7968 50 124 408 46 165 125 107881 70 122 190 600 91 77 303 39 38 36 37 67 3898 24 243 22 2829 1706 20117 32 20
internal_value=0.000331503 0.0397587 -0.119141 -0.144444 0.02142 -0.159617 0.059112 0.0595393 0.0598732 0.0601791 0.00855384 -0.106881 0.0612299 0.00231707 0.0616528 0.0250684 0.0254499 -0.128397 0.0525363 -0.0672044 -0.0517341 -0.163872 -0.103267 -0.191008 0.0615161 0.0559846 0.0579152 -0.164219 -0.156285 -0.042282
internal_weight=26047 19584.1 6462.95 5668.95 594.407 1732.81 17851.3 17810.7 17784.4 17761.6 354.308 116.021 17407.3 124.054 17283.3 58.073 106.183 40.5914 478.387 13.3911 24.8441 5074.55 28.8546 70.259 793.992 464.996 284.049 5045.69 824.508 10.659
internal_count=152379 119656 32723 27765 3550 8317 111339 111136 111011 110896 2141 598 108755 730 108025 349 639 203 2952 73 144 24215 148 365 4958 2879 1776 24067 3950 52
is_linear=0
shrinkage=0.05


Tree=3
num_leaves=31
num_cat=0
split_feature=17 6 46 45 2 6 53 15 83 8 4 4 2 56 7 15 80 26 6 9 7 6 16 6 2 6 7 2 7 42
split_gain=43181.4 26856.7 9867.74 5886.36 851.32 657.812 521.707 521.649 460.714 318.351 194.526 713.104 220.307 121.371 113.801 110.137 85.877 82.7477 76.7667 68.0245 47.9622 34.5609 33.0261 33.4718 24.8086 23.8553 230.702 19.3287 50.5563 247.973
threshold=1.0000000180025095e-35 0.91398918783023075 1.0000000180025095e-35 1.0000000180025095e-35 -0.013930243414361059 1.1225666288741165 1.0000000180025095e-35 1.0000000180025095e-35 1.0000000180025095e-35 -0.0070504770914588026 -0.014558085273784046 -0.01453994812197293 0.16547970921548791 1.0000000180025095e-35 -0.032841538671989093 1.0000000180025095e-35 1.0000000180025095e-35 1.0000000180025095e-35 1.0000000180025095e-35 0.078807823477538966 -0.032305007515951327 -0.083112725452735167 1.0000000180025095e-35 0.0084578584201902493 -0.014061825188325622 -0.093287234771949099 -0.032185778370165154 -0.014080235173064774 -0.031788347884211247 1.0000000180025095e-35
decision_type=2 2 2 2 2 2 2 2 2 2 2 2 2 2 2 2 2 2 2 2 2 2 2 2 2 2 2 2 2 2
left_child=2 6 21 22 20 -3 -2 8 -8 -6 13 12 17 -10 -13 -7 -9 -12 -16 -19 24 -1 27 -24 -5 26 -22 28 -4 -30
right_child=1 5 3 4 9 15 7 16 10 -11 11 14 -14 -15 18 -17 -18 19 -20 -21 25 -23 23 -25 -26 -27 -28 -29 29 -31
leaf_value=0.06149846304260706 -0.14720515738835427 -0.14823768438380688 -0.14827093711847339 0.0078794868430751563 -0.14433307985342211 0.05194585004891638 -0.15758904458037593 -0.1446888612920485 -0.14876002990641024 0.043791983001971277 -0.14440432938753653 -0.16405042909774678 0.050545884902135241 0.060723254214473436 0.060532848315716842 -0.15074402585194396 0.061711798842270085 -0.1516942906690108 -0.00023108006524222998 0.029217768662151439 0.061931019915070523 -0.08702910435984984 -0.11498484279650126 0.039251360721265581 -0.15034493175485911 0.061866369483855758 -0.12494103326336355 -0.14797886473749092 -0.052959580871733615 -0.15360602197481332
leaf_weight=760.83296465873718 30.828843757510185 1778.8897757381201 586.41582192480564 6.2550475895404816 90.540948152542114 49.222164422273636 24.495161548256874 36.648814380168915 6.9173603653907767 29.919349119067192 66.919175684452057 5.9282294362783423 25.35575857758522 16250.904762670398 681.31400962173939 7.7584886550903311 5.8430657684803 7.9981290847063091 56.271174386143684 14.831110104918478 124.90250352025032 3.9368791729211798 26.277506276965145 4.06125584244728 4.1020861119031888 308.91221278905869 19.03256767988205 4484.4260356128216 88.352489814162254 199.134143024683
leaf_count=4936 139 7968 2638 37 408 314 115 165 31 190 309 28 160 105479 4416 35 38 37 331 91 804 22 125 24 21 1993 97 20116 405 907
internal_value=0.000431785 0.038909 -0.108368 -0.130022 0.0208054 -0.142881 0.0582966 0.0586653 0.0590991 -0.0976075 0.0594092 0.0362147 -0.0795951 0.0606341 0.0541434 0.0243476 -0.116307 -0.116363 0.0558971 -0.034164 0.0515997 0.0607339 -0.146359 -0.0943382 -0.0547875 0.0540329 0.0372209 -0.146653 -0.139851 -0.122675
internal_weight=25787.2 19050.1 6737.1 5972.33 583.665 1835.87 17214.3 17183.4 17140.9 120.46 17116.4 858.618 115.104 16257.8 743.513 56.9807 42.4919 89.7484 737.585 22.8292 463.204 764.77 5388.67 30.3388 10.3571 452.847 143.935 5358.33 873.902 287.487
internal_count=152379 119656 32723 27765 3550 8317 111339 111200 110997 598 110882 5372 597 105510 4775 349 203 437 4747 128 2952 4958 24215 149 58 2894 901 24066 3950 1312
is_linear=0
shrinkage=0.05


Tree=4
num_leaves=31
num_cat=0
split_feature=17 6 46 44 6 53 8 3 14 83 1 8 6 3 26 8 5 20 58 80 11 3 6 1 1 6 39 8 6 3
split_gain=38419.7 24150.9 8417.62 4873.55 543.264 471.926 470.748 538.334 462.839 414.248 370.589 968.985 248.367 178.744 144.084 119.121 109.229 99.2361 96.1156 75.8325 68.7696 53.9797 31.9827 29.4024 27.7305 28.0339 25.3161 144.142 18.3537 15.2088
threshold=1.0000000180025095e-35 0.91398918783023075 1.0000000180025095e-35 1.0000000180025095e-35 1.1225666288741165 1.0000000180025095e-35 -0.0070504770914588026 -0.015463667987891828 -0.0051716168284587248 1.0000000180025095e-35 4.3948625492726174 -0.0070504770914588026 -0.10346174409116304 -0.015464053546188307 1.0000000180025095e-35 0.042409702252104699 -0.0067908174892327275 1.0000000180025095e-35 1.0000000180025095e-35 1.0000000180025095e-35 0.72165971462670309 -0.015372235591869695 -0.083112725452735167 5.7238262043404093 -0.29892092606366333 0.0084578584201902493 1.0000000180025095e-35 0.020770873789295669 1.0920431009164748 -0.015461024159573115
decision_type=2 2 2 2 2 2 2 2 2 2 2 2 2 2 2 2 2 2 2 2 2 2 2 2 2 2 2 2 2 2
left_child=2 5 22 6 28 -2 7 13 9 -7 14 12 -12 -4 15 26 18 -6 -16 -10 -15 29 -1 -13 25 -5 -11 -28 -3 -17
right_child=1 4 3 24 17 8 -8 -9 19 10 11 23 -14 20 16 21 -18 -19 -20 -21 -22 -23 -24 -25 -26 -27 27 -29 -30 -31
leaf_value=0.060786662066590696 -0.13362174272159053 -0.045720461064721267 -0.131109165511407 -0.10405185807666267 -0.11905790473211618 -0.14173167339563167 0.059524459962290013 -0.12634595549703215 -0.13665552716284077 0.060473054214978644 -0.22969051881284019 -0.13799466648250761 0.059176752325526043 0.05184763584787086 -0.14236952535556477 -0.16768942394167985 -0.11103875714568411 0.054840952578704354 0.038805921158119587 0.061010894029793608 -0.14077023341569705 0.038270482499706965 -0.078961349352463878 -0.21559801178879617 -0.133222679601641 0.038158856290044812 0.05390558617188497 -0.15010224037515008 -0.13494662166913535 -0.065307770587769626
leaf_weight=731.98581540584564 32.225040584802628 5.7813844978809348 16.130621775984764 27.22083139419556 9.9943205416202527 25.835774630308151 326.8777207583189 93.67679825425148 35.497952833771706 15890.693504840136 7.6590836942195883 57.466210216283798 261.45438498258591 130.22032645344734 7.9378228038549414 6.4528776109218589 17.334751665592194 45.792531698942184 94.114934116601944 5.6203240156173697 4.8048410266637793 10.487395748496054 4.1171854734420767 15.497258216142653 5597.0421357750893 3.97097623348236 101.573081985116 9.4652123004198057 1852.1918537318707 8.2841612100601214
leaf_count=4936 139 26 73 124 46 115 2186 418 153 107166 45 249 1760 852 35 32 82 303 600 38 21 67 22 87 24067 24 680 46 7942 45
internal_value=0.000506448 0.0381304 -0.0998526 -0.118832 -0.130053 0.0575342 0.0202583 -0.0321661 0.0579063 0.0583235 0.0586369 0.00713756 0.0509555 0.0262006 0.059728 0.0601357 0.0050029 0.0236866 0.0247138 -0.109637 0.0449934 -0.0484349 0.060005 -0.154477 -0.132961 -0.0859473 0.0603068 0.0365154 -0.134669 -0.110137
internal_weight=25437.4 18501.4 6936.05 6199.94 1913.76 16587.6 571.71 244.833 16555.4 16514.3 16488.4 342.077 269.113 151.156 16146.3 16027 119.388 55.7869 102.053 41.1183 135.025 25.2244 736.103 72.9635 5628.23 31.1918 16001.7 111.038 1857.97 14.737
internal_count=152379 119656 32723 27765 8317 111339 3550 1364 111200 111009 110894 2141 1805 946 108753 108036 717 349 635 191 873 144 4958 336 24215 148 107892 726 7968 77
is_linear=0
shrinkage=0.05


Tree=5
num_leaves=31
num_cat=0
split_feature=17 6 46 37 6 9 6 15 53 1 9 0 89 26 8 12 5 0 6 58 2 80 3 0 0 2 39 4 0 6
split_gain=34477.7 21911.3 7295.97 1319.11 2541.67 1140.25 458.867 440.126 432.674 356.745 975.77 260.271 209 141.123 112.137 109.606 98.1953 90.8937 88.9895 85.3889 67.9084 62.9181 46.2701 39.0143 95.8151 30.6894 24.7487 148.26 24.0291 23.9852
threshold=1.0000000180025095e-35 0.91398918783023075 1.0000000180025095e-35 1.0000000180025095e-35 -0.093287234771949099 -0.038839851675201174 1.1225666288741165 1.0000000180025095e-35 1.0000000180025095e-35 4.3948625492726174 -0.040406588269244918 -0.36474160620153734 1.0000000180025095e-35 1.0000000180025095e-35 0.042409702252104699 3.7529101684923001 -0.0067908174892327275 0.03882082067254191 -0.10346174409116304 1.0000000180025095e-35 -0.013994917824849485 1.0000000180025095e-35 -0.015372235591869695 0.61981155591367332 0.67388191002762621 1.0000000180025095e-35 1.0000000180025095e-35 -0.014558085273784046 -2.1025086108412698 0.0084578584201902493
decision_type=2 2 2 2 2 2 2 2 2 2 2 2 2 2 2 2 2 2 2 2 2 2 2 2 2 2 2 2 2 2
left_child=2 7 25 28 5 11 -3 8 -2 12 18 -5 13 14 26 -6 19 -8 -11 -15 -13 -9 -16 -21 -25 -1 -10 -28 29 -4
right_child=1 6 3 4 15 -7 17 21 9 10 -12 20 -14 16 22 -17 -18 -19 -20 23 -22 -23 -24 24 -26 -27 27 -29 -30 -31
leaf_value=0.059999537315939745 -0.12289242479958516 -0.12397125566507555 -0.09546367374760982 -0.12404678260811555 0.058199932307602301 -0.12281241592230395 0.056441765485237966 -0.12159394653148586 0.059690800834616121 -0.21320434992899126 -0.14251580032175562 0.059317172310664162 -0.1221026636678019 -0.13035000394747573 -0.099872308275279931 -0.10264225305600971 -0.10225579845346909 -0.1016724559331172 0.058465130607660731 0.055861548081540029 -0.10723814918819184 0.060359190809243173 0.037247493190222199 -0.20878532774545669 0.037994835002287557 -0.10120812322974959 0.057329692141062864 -0.12268943254492433 -0.12284146314888432 0.037091556657943676
leaf_weight=705.08398719131947 33.257411062717438 1915.7497901469469 28.160150527954102 25.347489804029465 322.06157240271568 1019.5890626758337 43.053849935531616 39.407084032893181 15288.801265135407 3.0509197115898123 82.640807807445526 123.73027576506138 15.959341585636137 8.2280584871768934 15.405572548508646 10.952112689614294 18.212348699569702 11.521747320890425 251.65338590741158 70.25335156917572 6.4383896589279166 5.4024729132652274 10.242940559983252 5.1666536033153561 16.476456359028816 2.9646906554698935 95.126996383070946 13.000505983829497 4824.3241986185312 3.8832349479198447
leaf_count=4942 139 7968 124 106 2217 4267 293 165 107200 17 366 835 66 35 77 47 83 56 1760 462 28 38 67 33 105 16 664 62 20117 24
internal_value=0.000564579 0.0374184 -0.0929314 -0.10987 -0.0690223 -0.103577 -0.119899 0.0568249 0.0572651 0.0576421 0.00677306 0.0225354 0.0587451 0.0589308 0.0593482 0.0529102 0.00453717 0.0230614 0.055211 0.0239625 0.051079 -0.0996567 -0.0451124 0.037779 -0.0209166 0.0593245 0.0595222 0.0356854 -0.122555 -0.0793997
internal_weight=25015.1 17942.6 7072.54 6364.49 1508.12 1175.11 1970.33 15972.3 15927.5 15894.2 337.345 155.516 15556.9 15540.9 15422.6 333.014 118.337 54.5756 254.704 100.125 130.169 44.8096 25.6485 91.8965 21.6431 708.049 15396.9 108.128 4856.37 32.0434
internal_count=152379 119656 32723 27765 7500 5236 8317 111339 111136 110997 2143 969 108854 108788 108070 2264 718 349 1777 635 863 203 144 600 138 4958 107926 726 20265 148
is_linear=0
shrinkage=0.05


Tree=6
num_leaves=31
num_cat=0
split_feature=33 7 39 10 4 8 10 0 7 15 1 9 58 2 16 2 1 7 8 2 42 2 26 5 9 0 80 2 3 8
split_gain=23139.6 15257.3 7494.03 4933.48 3046.62 3042.15 1447.64 896.454 724.137 479.259 416.679 633.125 276.11 245.671 227.129 224.497 1226.86 162.597 917.568 182.488 144.917 108.611 100.709 122.509 88.4749 71.3612 56.8016 55.6448 48.4538 36.9322
threshold=1.0000000180025095e-35 -0.0323844936131421 1.0000000180025095e-35 -0.087696824144999033 -0.014738948035883692 -0.0070504770914588026 -0.087696824144999033 -2.1040754825960453 -0.034232545372827758 1.0000000180025095e-35 4.3948625492726174 -0.040406588269244918 1.0000000180025095e-35 -0.014079832107425947 1.0000000180025095e-35 -0.013426323243112907 -0.28694698862658091 -0.034232545372827758 -0.010141738300431521 -0.013750020200176431 1.0000000180025095e-35 0.18618520027739094 1.0000000180025095e-35 -0.0067908174892327275 -0.038554990476284128 -2.0042737189613526 1.0000000180025095e-35 -0.013848712277783486 -0.015456232220745448 0.042409702252104699
decision_type=2 2 2 2 2 2 2 2 2 2 2 2 2 2 2 2 2 2 2 2 2 2 2 2 2 2 2 2 2 2
left_child=2 6 3 9 20 -6 -2 -3 13 10 12 25 -1 24 17 -9 -17 18 -14 -20 27 -10 29 -24 -4 -12 -11 -5 -7 -19
right_child=1 7 8 4 5 28 -8 15 21 26 11 -13 14 -15 -16 16 -18 22 19 -21 -22 -23 23 -25 -26 -27 -28 -29 -30 -31
leaf_value=-0.11443099926684178 0.059683240110589723 0.059929626045279273 0.058693186193574498 0.059473702093629469 -0.11388085340920096 0.056429899800099798 -0.11657766633108149 -0.11390924015063925 0.054812279950085523 -0.11464769621963311 -0.18178224456309541 -0.12700040903646898 -0.12098070621424567 -0.1163442059907106 -0.074251498246621417 0.059167427697014108 -0.11677520080818174 0.058987570560597613 0.059608800426944809 -0.21960924918237576 -0.12200781661773315 -0.10790457865115272 0.036253498360353395 -0.098034205451261847 -0.1083685690816652 0.057602389066350006 0.059752412171260733 -0.076665050959718303 -0.045519442512358288 -0.0027443354995454095
leaf_weight=23.572756692767143 1937.3773854076862 78.084457710385323 28.13976863026619 720.68547800183296 1038.5911684781313 357.81171452999115 123.94196119904518 5352.4156285822392 82.649990543723106 46.50483800470829 3.1890558749437323 78.332573160529137 84.459744840860367 875.28805992007256 32.954540550708771 123.1910086274147 506.28318785130978 12184.887974023819 523.28754365444183 5.9179646223783484 11.348091334104536 11.708115041255949 91.259902149438858 20.867353528738022 11.032161548733709 130.91816334426403 5.1898505091667166 7.5848616361618033 12.047031834721563 24.276726141571999
leaf_count=97 14135 565 200 5244 4255 2564 506 21893 592 191 16 332 350 3583 149 896 2077 88798 3819 36 47 51 608 92 48 950 38 37 64 146
internal_value=0.000609942 -0.0684204 0.0347678 0.0434142 -0.0268785 -0.0700293 0.0490851 -0.10839 -0.0972541 0.0548051 0.0554 -0.0140594 0.0565358 -0.110862 0.0568466 -0.110587 -0.0823424 0.0571806 0.0320613 0.0564864 0.0552931 0.0346221 0.0584316 0.011262 0.0116429 0.0519098 -0.0971389 0.0580558 0.0531092 0.0588648
internal_weight=24533.8 8121.29 16412.5 15403.7 2148.07 1408.45 2061.32 6059.97 1008.82 13255.6 13203.9 212.44 12991.5 914.46 12967.9 5981.89 629.474 12935 613.665 529.206 739.618 94.3581 12321.3 112.127 39.1719 134.107 51.6947 728.27 369.859 12209.2
internal_count=152379 40072 112307 107833 12211 6883 14641 25431 4474 95622 95393 1298 94095 3831 93998 24866 2973 93849 4205 3855 5328 643 89644 700 248 966 229 5281 2628 88944
is_linear=0
shrinkage=0.05


Tree=7
num_leaves=31
num_cat=0
split_feature=17 7 47 45 7 2 53 15 83 7 4 4 31 15 2 4 56 0 9 4 80 2 11 3 2 3 7 0 2 3
split_gain=28313.1 17633.6 5680.35 3109.29 1056.15 603.753 366.202 334.516 297.88 175.827 174.223 553.591 132.449 113.92 85.731 85.4622 84.8062 74.2859 47.9996 59.5421 47.4033 44.7675 38.2268 33.5145 27.4169 21.1343 20.2327 19.5401 19.0397 27.281
threshold=1.0000000180025095e-35 0.14721434298942729 1.0000000180025095e-35 1.0000000180025095e-35 0.15605717130190166 -0.013945395923756774 1.0000000180025095e-35 1.0000000180025095e-35 1.0000000180025095e-35 -0.030476827280563366 -0.014558085273784046 -0.014488512889207038 1.0000000180025095e-35 1.0000000180025095e-35 -0.007597034717515082 -0.013803065914869905 1.0000000180025095e-35 1.1413939502152606 0.097893523804981078 -0.014555083613316007 1.0000000180025095e-35 0.18618520027739094 0.20230775745339041 -0.015462566392759032 1.0000000180025095e-35 -0.015392229543529956 -0.032305007515951327 -2.1025086108412698 -0.014080247433616525 -0.015453533312670098
decision_type=2 2 2 2 2 2 2 2 2 2 2 2 2 2 2 2 2 2 2 2 2 2 2 2 2 2 2 2 2 2
left_child=2 6 3 27 14 17 -2 8 -8 -7 16 12 18 -6 -3 -13 -10 22 19 -12 -9 -17 26 -24 -4 -20 -5 28 -1 -30
right_child=1 4 24 5 13 9 7 20 10 -11 11 15 -14 -15 -16 21 -18 -19 25 -21 -22 -23 23 -25 -26 -27 -28 -29 29 -31
leaf_value=-0.12023042882491418 -0.10723727975621665 -0.10848057495055402 0.058801724347075861 -0.019133031126826884 0.045288144491101356 -0.10615906391726532 -0.11933658496406439 -0.10518608094810195 -0.10778807605609449 0.035823541321804035 0.024198553338460868 0.057282412439965041 0.055595461502015935 -0.1137400232439278 0.048857361924608531 -0.095302101477847137 0.058090561225296711 -0.12165542657458413 0.019312427806784025 -0.1077514138209284 0.059186748168865426 0.054108107047588519 -0.1149056636613357 0.059278261791164702 -0.089494520304399278 -0.10007943592345805 0.056117928827404087 -0.10693787633098487 0.069734788332075304 -0.069285918685980871
leaf_weight=11.636733919382094 34.420740932226181 1976.5530131757259 651.06653286516666 9.1478898674249631 133.06150607764721 100.53735311329365 24.061325937509537 36.637724295258522 7.7095404118299475 27.843890950083733 9.5090126395225507 581.97161850333214 21.582945361733437 12.302637934684752 8.6959638595581037 14.328123450279238 13837.266680717468 6.2756994515657416 15.335447847843172 84.737174153327942 4.9827212393283835 7.7119969427585593 6.3534049838781357 4.8848065882921201 3.1317087262868872 4.8880905658006659 379.2642598003149 5970.1036939024925 4.4299343675374976 17.350071713328365
leaf_count=49 139 7957 4942 49 957 407 101 148 31 198 59 4375 156 50 64 71 104971 26 99 355 38 55 26 37 16 30 2807 24067 19 80
internal_value=0.000645678 0.036156 -0.0823815 -0.0964378 -0.0982656 0.0191445 0.0556588 0.0560415 0.0564448 -0.0753652 0.0567347 0.0330984 -0.0580184 0.0318291 -0.107791 0.0536223 0.0579982 0.0490349 -0.07944 -0.0944383 -0.0855077 -0.0430224 0.0517153 -0.0391948 0.0580918 -0.00954495 0.0543456 -0.106724 -0.0685969 -0.0410099
internal_weight=24007.8 16815.8 7192.03 6537.83 2130.61 534.307 14685.1 14650.7 14609.1 128.381 14585 740.064 136.053 145.364 1985.25 604.012 13845 405.926 114.47 94.2462 41.6204 22.0401 399.65 11.2382 654.198 20.2235 388.412 6003.52 33.4167 21.78
internal_count=152379 119656 32723 27765 9028 3550 110628 110489 110303 605 110202 5200 699 1007 8021 4501 105002 2945 543 414 186 126 2919 63 4958 129 2856 24215 148 99
is_linear=0
shrinkage=0.05


Tree=8
num_leaves=31
num_cat=0
split_feature=17 6 46 44 2 15 53 83 6 4 4 8 2 57 4 20 3 80 7 8 9 6 6 29 9 6 3 3 2 2
split_gain=25843.9 16960.5 5076.82 2734.28 555.607 351.463 340.594 314.19 305.767 172.975 491.76 161.809 151.242 78.6832 71.7068 70.722 47.2329 42.9222 34.4837 30.1953 45.2044 28.6534 27.1878 26.402 25.1341 19.6947 142.555 19.3339 19.3022 54.8375
threshold=1.0000000180025095e-35 0.91398918783023075 1.0000000180025095e-35 1.0000000180025095e-35 -0.013945395923756774 1.0000000180025095e-35 1.0000000180025095e-35 1.0000000180025095e-35 1.1225666288741165 -0.014558085273784046 -0.014509956955093115 -0.0070504770914588026 0.16547970921548791 1.0000000180025095e-35 -0.013803065914869905 1.0000000180025095e-35 -0.015354059272178549 1.0000000180025095e-35 -0.032305007515951327 0.01149709016237751 0.078807823477538966 -0.093287234771949099 -0.083112725452735167 1.0000000180025095e-35 0.097893523804981078 -0.093287234771949099 -0.015463667987891828 -0.015392229543529956 -0.014080235173064774 -0.014080248966185495
decision_type=2 2 2 2 2 2 2 2 2 2 2 2 2 2 2 2 2 2 2 2 2 2 2 2 2 2 2 2 2 2
left_child=2 5 22 4 18 6 -2 -8 -3 13 12 -6 19 -9 21 -10 -16 -7 -4 20 -11 -12 -1 -23 -21 26 -20 -26 29 -5
right_child=1 8 3 28 11 17 7 9 15 10 14 -13 -14 -15 16 -17 -18 -19 25 24 -22 23 -24 -25 27 -27 -28 -29 -30 -31
leaf_value=0.058399655288427194 -0.10115715664873304 -0.1022750747057333 -0.037439250063649558 -0.095853042129886934 -0.10000159986932036 -0.099614256105384422 -0.11192016978107283 0.057506567325963077 -0.092500659762181525 -0.12073560558445823 -0.10935531935243342 0.03884277826808244 0.04793818216165293 -0.10188316072686235 -0.084954697560666453 0.051991098060886781 0.045704238656094638 0.058658792623564909 0.05913824954414109 -0.10162552798566318 0.061966315402560236 0.057234350331039498 -0.066740580727708415 -0.097252980307911768 0.013093796368967162 0.058885177146002478 -0.081091501595514981 -0.10991720893016262 -0.10198541552074419 -0.0012679626201499929
leaf_weight=623.87034717202187 34.657990783452988 1990.3930159062147 11.382846459746359 984.22151423990726 102.14369535446167 41.151385173201561 27.875390470027924 13354.113037288189 10.719321385025976 5.6918693631887427 2.6163269728422156 26.409370020031929 29.176944270730019 7.7473521828651419 15.396445393562319 40.331194296479225 12.558867201209067 4.7812872529029837 104.05116207897663 79.367133036255836 8.3555978685617429 572.36893400549889 4.3707133680582038 2.7790344357490531 9.2727409005165082 254.4369490891695 21.946126997470856 4.8728813230991355 5041.9809046685696 15.566379919648169
leaf_count=4936 139 7968 58 3947 410 165 115 105479 46 25 12 195 217 31 75 303 87 38 804 325 55 4472 22 17 58 1988 95 29 20203 65
internal_value=0.000673325 0.035589 -0.0782553 -0.0912549 0.0187202 0.0549458 0.0553936 0.0557775 -0.099176 0.0561089 0.0326189 -0.071478 -0.0530264 0.0574142 0.0519527 0.0216515 -0.0262564 -0.0831391 0.0483138 -0.0804142 -0.0120624 0.0557369 0.057529 0.0564879 -0.090682 0.0508796 0.0347131 -0.029281 -0.100727 -0.0943804
internal_weight=23444.6 16254.2 7190.38 6562.14 520.37 14212.8 14166.9 14132.2 2041.44 14104.3 742.457 128.553 136.737 13361.9 605.72 51.0505 27.9553 45.9327 391.817 107.56 14.0475 577.764 628.241 575.148 93.5128 380.434 125.997 14.1456 6041.77 999.788
internal_count=152379 119656 32723 27765 3550 111339 111136 110997 8317 110882 5372 605 709 105510 4663 349 162 203 2945 492 80 4501 4958 4489 412 2887 899 87 24215 4012
is_linear=0
shrinkage=0.05


Tree=9
num_leaves=31
num_cat=0
split_feature=17 6 46 44 1 8 8 53 3 0 15 7 6 89 26 85 8 0 0 6 80 0 3 15 6 1 39 8 0 6
split_gain=23683.1 15690.7 4568.37 2424.82 364.658 645.107 338.852 319.891 300.347 286.277 251.31 206.438 183.745 155.341 126.774 105.356 98.6024 55.6618 49.0732 42.7654 36.8396 36.3419 33.6082 32.9494 25.4834 24.3474 23.5803 94.9555 19.3554 20.4278
threshold=1.0000000180025095e-35 0.91398918783023075 1.0000000180025095e-35 1.0000000180025095e-35 4.3948625492726174 -0.0070504770914588026 -0.0070504770914588026 1.0000000180025095e-35 -0.015463667987891828 -2.1040754825960453 1.0000000180025095e-35 -0.032305007515951327 -0.10346174409116304 1.0000000180025095e-35 1.0000000180025095e-35 1.0000000180025095e-35 0.042409702252104699 0.60833886781090929 0.67388191002762621 1.1785264301297931 1.0000000180025095e-35 0.49555065861544906 -0.015372235591869695 1.0000000180025095e-35 -0.083112725452735167 5.7238262043404093 1.0000000180025095e-35 0.01767961258032295 -2.1025086108412698 -0.011891160218237624
decision_type=2 2 2 2 2 2 2 2 2 2 2 2 2 2 2 2 2 2 2 2 2 2 2 2 2 2 2 2 2 2
left_child=2 4 24 6 7 12 8 -2 11 -3 13 -4 -6 14 15 16 26 -16 -19 -11 -12 -10 -18 -21 -1 -7 -9 -28 29 -5
right_child=1 9 3 28 5 25 -8 10 21 19 20 -13 -14 -15 17 -17 22 18 -20 23 -22 -23 -24 -25 -26 -27 27 -29 -30 -31
leaf_value=0.057891502947265375 -0.095975083419628668 0.059853144187190732 -0.089614252282314649 -0.073813633132017428 -0.16731444406366802 -0.0985489644809351 0.0564865599680517 0.057523620738222959 0.045271129918366744 -0.097310783738083675 -0.093300913387789022 0.058017279522641851 0.055959461501710467 -0.09709928474951697 0.026351938746085941 -0.11857420374132568 -0.084661722233810202 -0.14664806086529755 -0.012068114233990741 0.025283543630455031 0.058165491358151522 -0.096700240302888665 0.033958994657273915 -0.10090180239073412 -0.061635852304992356 -0.16140013572922174 0.051254266260745189 -0.10040813013220867 -0.095827042783443589 0.036960438388286727
leaf_weight=598.5207237675786 34.700938865542412 29.687819272279739 30.800885513424873 29.791772827506065 9.6280011832714063 69.631143450737 270.68023770302534 13013.096833318472 4.7266137003898612 1988.9611130207777 32.2241200953722 102.41637929528952 214.63921745866537 16.462812602519989 78.741218894720078 8.5352921485900861 16.158217489719394 9.5391702204942685 23.364657402038574 12.663537457585335 4.5856946408748618 97.281262964010239 9.47135181725025 8.746419757604599 4.4927411824464789 19.787467837333679 84.014988899230957 11.765931233763693 6011.827097043395 4.8376498371362677
leaf_count=4936 139 229 132 122 46 280 2186 107165 23 7963 129 814 1760 66 530 35 77 50 138 90 38 395 67 35 22 93 674 52 24067 26
internal_value=0.000695727 0.035063 -0.0746942 -0.0868141 0.0543847 0.00109796 0.0183401 0.0556375 -0.025556 -0.0942781 0.0560328 0.0238837 0.0463741 0.0563947 0.0565853 0.057036 0.0571501 0.00353008 -0.0510843 -0.0965542 -0.0744315 -0.0901219 -0.0408257 -0.0262658 0.057001 -0.112457 0.0573417 0.0326237 -0.0956123 -0.0583388
internal_weight=22851.8 15696.4 7155.38 6552.36 13656.3 313.686 505.905 13342.7 235.225 2040.06 13308 133.217 224.267 13271.2 13254.7 13143 13134.5 111.645 32.9038 2010.37 36.8098 102.008 25.6296 21.41 603.013 89.4186 13108.9 95.7809 6046.46 34.6294
internal_count=152379 119656 32723 27765 111339 2179 3550 109160 1364 8317 109021 946 1806 108854 108788 108070 108035 718 188 8088 167 418 144 125 4958 373 107891 726 24215 148
is_linear=0
shrinkage=0.05


Tree=10
num_leaves=31
num_cat=0
split_feature=17 7 46 44 1 2 1 8 53 83 15 7 5 8 8 59 0 1 7 5 11 80 3 1 1 5 0 0 3 2
split_gain=21776.2 14024.1 4134.14 2166.4 824.797 479.498 350.846 585.189 298.731 239.186 195.482 163.43 129.028 128.577 98.5954 63.2276 59.7848 55.8459 48.1434 38.1606 32.9051 32.1647 26.9267 357.141 71.8488 52.8741 27.212 25.9613 25.5281 24.519
threshold=1.0000000180025095e-35 0.14721434298942729 1.0000000180025095e-35 1.0000000180025095e-35 -0.14110873265636845 -0.013945395923756774 4.3948625492726174 -0.0070504770914588026 1.0000000180025095e-35 1.0000000180025095e-35 1.0000000180025095e-35 -0.034232545372827758 -0.0030047804440086969 -0.0070504770914588026 0.039318441043131987 1.0000000180025095e-35 1.1413939502152606 0.33075044263368497 -0.023621151397858513 -0.0067217011942894891 0.20230775745339041 1.0000000180025095e-35 -0.015430124416098165 -0.037501908724727806 -0.24407025457044179 -0.0069434183411504133 0.61981155591367332 0.79275170620348689 -0.015462566392759032 -0.002969521643163121
decision_type=2 2 2 2 2 2 2 2 2 2 2 2 2 2 2 2 2 2 2 2 2 2 2 2 2 2 2 2 2 2
left_child=2 6 29 5 12 16 8 11 -2 -10 14 -8 -3 -7 15 22 20 -6 -16 -20 -4 -12 -11 24 -24 26 -26 -28 -22 -1
right_child=1 4 3 -5 17 13 7 -9 9 10 21 -13 -14 -15 18 -17 -18 -19 19 -21 28 -23 23 -25 25 -27 27 -29 -30 -31
leaf_value=0.057598741863482655 -0.091505869033409293 0.054448614521458431 0.052507788399345882 -0.091200431749920374 -0.093227450039247733 -0.090511368272705034 -0.1493170155820481 -0.10586038956699689 -0.099696037341380023 0.057071178357212177 -0.087987240123164737 0.05541229709551964 -0.099920967955086426 0.036551357565362104 -0.12641356014781643 -0.10021948974639533 -0.10357543463017574 0.054321627288696231 0.027683350512491153 -0.094617292667297695 -0.099373047431244046 0.057704093599943024 0.05755209097288623 -0.3069135881374469 0.054071061103885647 -0.094626129766313988 -0.14010733643478621 0.046394877035920074 0.057791425988876981 -0.040240200050198564
leaf_weight=572.06468731164932 34.578489780426025 116.32103886455297 347.3143792077899 6022.5189314633608 1980.7684864029288 102.13114959001541 10.231755778193472 90.204436495900154 24.727990105748177 12156.944744959474 27.405910313129429 206.13617191463709 15.31897024810314 24.731044724583626 7.661312907934188 6.4269911497831336 6.46486872434616 6.4337824285030356 40.684911102056503 7.5640078634023658 6.4379668980836868 4.396041363477706 358.31401032209396 7.1235554814338675 22.014812849462036 13.117353230714796 4.1379333585500708 3.3984123766422272 4.3158060386776906 6.4760166257619849
leaf_count=4918 139 947 2856 24215 7974 410 46 373 101 104283 110 1760 62 195 34 26 26 45 278 32 26 38 3066 60 178 57 24 23 37 40
internal_value=0.000714614 0.0345763 -0.0715873 -0.0829639 -0.0847206 0.0179829 0.0539828 0.00112739 0.0552569 0.055657 0.0559604 0.0457309 0.0364846 -0.0657412 0.0562723 0.0565669 0.0471199 -0.0927497 -0.00997823 0.00851022 0.0498407 -0.0678481 0.0566471 0.0440141 0.0502485 -0.0110847 0.0259982 -0.0560067 -0.0362983 0.0565036
internal_weight=22236.4 15143.9 7092.45 6513.91 2118.84 491.395 13025.1 306.572 12718.5 12683.9 12659.2 216.368 131.64 126.862 12627.4 12571.5 364.533 1987.2 55.9102 48.2489 358.068 31.802 12565.1 408.106 400.983 42.6685 29.5512 7.53635 10.7538 578.541
internal_count=152379 119656 32723 27765 9028 3550 110628 2179 108449 108310 108209 1806 1009 605 108061 107717 2945 8019 344 310 2919 148 107691 3408 3348 282 225 47 63 4958
is_linear=0
shrinkage=0.05


Tree=11
num_leaves=31
num_cat=0
split_feature=18 6 46 45 2 1 9 53 83 0 15 16 6 26 5 6 9 58 0 39 4 2 0 0 80 2 11 6 1 0
split_gain=19983.6 13472.4 3766 1955.38 445.483 329.964 621.654 277.309 254.563 250.695 216.872 168.833 160.331 120.324 60.5118 57.9548 53.9249 52.4301 43.5719 38.7747 108.563 35.4058 32.9341 60.2606 30.0306 24.2144 24.0742 23.4006 21.6343 36.8722
threshold=1.0000000180025095e-35 0.94451271578787244 1.0000000180025095e-35 1.0000000180025095e-35 -0.014013403671752597 4.3948625492726174 -0.040406588269244918 1.0000000180025095e-35 1.0000000180025095e-35 -2.1040754825960453 1.0000000180025095e-35 1.0000000180025095e-35 -0.093287234771949099 1.0000000180025095e-35 -0.0067288853253050949 -0.10346174409116304 0.36552062018754622 1.0000000180025095e-35 1.1413939502152606 1.0000000180025095e-35 -0.014558085273784046 0.18618520027739094 0.61981155591367332 0.67388191002762621 1.0000000180025095e-35 0.079590249938961674 0.20230775745339041 -0.083112725452735167 -0.24407025457044179 -0.22345757678786918
decision_type=2 2 2 2 2 2 2 2 2 2 2 2 2 2 2 2 2 2 2 2 2 2 2 2 2 2 2 2 2 2
left_child=1 5 27 -4 18 7 15 -1 -9 -3 11 13 -6 16 17 -7 19 -15 26 -10 25 28 -19 -24 -12 -21 -5 -2 29 -11
right_child=2 9 3 4 12 6 -8 8 10 21 24 -13 -14 14 -16 -17 -18 22 -20 20 -22 -23 23 -25 -26 -27 -28 -29 -30 -31
leaf_value=-0.087612010440824117 0.056970053105448275 0.059195192083475116 -0.087570091196238126 0.053263775571742403 -0.086553550974462545 -0.1400412993694001 -0.10293047747019093 -0.095519166043578074 0.056561910634300099 0.060768073047934738 -0.084895680566084764 -0.056207014629860497 0.040249081552164362 -0.09799779724017578 -0.083462539271562275 0.054888951200787822 -0.05267428656069556 0.050106744057281917 -0.098150858917718312 0.055471821853453562 -0.085350945997491046 0.028412987524549151 -0.15050289714663984 0.032282510000428956 0.057272112223332561 -0.11012149760883823 -0.02877110382080407 -0.056108263252431678 -0.089284685974442918 -0.093131667369328153
leaf_weight=34.315790101885796 550.2631782963872 29.183217205107212 5939.334707185626 322.81362098455429 107.8594955354929 3.8879418969154349 96.927366599440575 28.129316195845604 11977.396352380514 6.5096444189548519 31.42795293033123 33.776011079549789 32.422217458486557 8.6193438470363599 16.913439974188805 197.90508606284857 11.360846310853956 61.904632113873959 4.9705094993114463 74.224527135491371 18.190509244799614 6.462721958756446 6.3862593919038799 15.340385437011717 4.2123840451240531 2.2753128930926314 9.1980782747268659 4.6135312318801871 1958.8848662823439 9.6782270818948728
leaf_count=139 4936 239 24066 2768 439 17 402 115 107215 50 127 139 266 35 71 1760 61 473 20 655 80 42 33 106 38 14 57 22 7955 39
internal_value=0.000730483 0.0339205 -0.0689391 -0.0797458 0.0176236 0.0530676 0.00114338 0.0543261 0.0547225 -0.0862841 0.0550671 0.0554261 -0.0572466 0.0557354 0.00347733 0.0511332 0.0562075 0.0194171 0.0487912 0.05631 0.02444 -0.0884267 0.0315183 -0.0214448 -0.0680927 0.0505466 0.0509911 0.0560299 -0.088809 -0.0312438
internal_weight=21605.4 14633.9 6971.48 6416.6 477.264 12623.2 298.72 12324.5 12290.2 2010.72 12262 12226.4 140.282 12192.6 109.164 201.793 12083.4 92.2506 336.982 12072.1 94.6903 1981.54 83.6313 21.7266 35.6403 76.4998 332.012 554.877 1975.07 16.1879
internal_count=152379 119805 32574 27616 3550 111480 2179 109301 109162 8325 109047 108882 705 108743 718 1777 108025 647 2845 107964 749 8086 612 139 165 669 2825 4958 8044 89
is_linear=0
shrinkage=0.05


Tree=12
num_leaves=31
num_cat=0
split_feature=17 6 46 44 2 1 8 8 83 0 7 6 6 15 26 3 58 5 0 2 2 11 3 2 2 7 42 7 11 0
split_gain=18561.8 12621.1 3431.38 1761.56 413.866 318.864 489.921 265.852 235.152 213.588 147.488 145.578 135.479 121.907 97.7095 87.7571 79.6964 86.3479 40.4233 32.3368 23.0005 22.9081 21.1696 20.7357 51.8842 33.544 140.634 60.1078 94.2036 41.1732
threshold=1.0000000180025095e-35 0.91398918783023075 1.0000000180025095e-35 1.0000000180025095e-35 -0.014013403671752597 4.3948625492726174 -0.0070504770914588026 0.026953396207241107 1.0000000180025095e-35 -2.1040754825960453 -0.027376869490122909 -0.093287234771949099 -0.10346174409116304 1.0000000180025095e-35 1.0000000180025095e-35 -0.015433484281253197 1.0000000180025095e-35 -0.0067908174892327275 1.1413939502152606 0.18618520027739094 -0.002969521643163121 0.20230775745339041 -0.015462566392759032 -0.014080235173064774 -0.014080248966185495 -0.031788347884211247 1.0000000180025095e-35 -0.031271688252471168 0.72165971462670309 0.50272108867967658
decision_type=2 2 2 2 2 2 2 2 2 2 2 2 2 2 2 2 2 2 2 2 2 2 2 2 2 2 2 2 2 2
left_child=2 5 20 4 18 7 12 8 -2 -3 -9 -6 -7 14 -10 -16 -12 -18 21 -11 -1 -4 -23 24 25 -5 27 28 29 -27
right_child=1 9 3 23 11 6 -8 10 13 19 16 -13 -14 -15 15 -17 17 -19 -20 -21 -22 22 -24 -25 -26 26 -28 -29 -30 -31
leaf_value=0.056746428112493211 -0.090838830450738275 0.058357170383332026 0.05264378326023661 -0.085402849237668027 -0.082905074510370408 -0.12620500149931099 -0.096069462171715803 -0.096316471446226848 0.056066099643808244 -0.085470973452512172 -0.088905442794386447 0.039378233046215606 0.054387065016664876 -0.05614157965331721 0.048394470872320933 -0.078752346177775837 0.043914158141416505 -0.062789884348335698 -0.093698216607128834 0.027423813746790066 -0.037556581826990842 -0.094492161995472695 0.057568568265834355 -0.085289547624175788 0.011877655294790485 0.077268311142209445 -0.088082198284938087 -0.094895174527381457 -0.092114550329408032 -0.0047093229740462978
leaf_weight=525.39198116958141 27.51220041513443 26.293390825390816 310.59485890716314 644.3736085742712 106.99672108888626 10.985860928893088 89.611610323190689 34.855861008167267 11479.835932195187 1950.3837267383933 16.10775052011013 31.505750142037868 189.94642219692469 24.394972801208496 29.036370374262333 25.479598708450794 128.07780194282532 22.253943592309952 4.9468944668769828 6.3636079877614966 6.5464118495583525 5.1644309312105179 4.1106958687305433 4923.5656346827745 16.031641408801079 28.042978003621101 220.63550835847855 19.940414428710938 20.101603701710701 33.750840783119202
leaf_count=4918 113 229 2768 2638 439 46 373 145 107188 8046 66 266 1760 121 232 123 1073 99 20 42 40 21 36 20203 65 113 899 80 81 136
internal_value=0.000742979 0.0337057 -0.0664134 -0.0766015 0.0172799 0.0529001 0.00115376 0.0541756 0.0551653 -0.0832017 -0.00279268 -0.0550888 0.0445133 0.0555128 0.055749 -0.0110312 0.0167931 0.0281185 0.048138 -0.0851038 0.0555859 0.0503315 -0.0270995 -0.0839659 -0.0773352 -0.0788145 -0.0656495 -0.0170471 0.0019078 0.0324934
internal_weight=20962.8 14061.1 6901.7 6369.76 463.319 12078.1 290.544 11787.6 11586.3 1983.04 201.295 138.502 200.932 11558.7 11534.4 54.516 166.439 150.332 324.817 1956.75 531.938 319.87 9.27513 5906.44 982.877 966.845 322.471 101.836 81.8954 61.7938
internal_count=152379 119656 32723 27765 3550 111339 2179 109160 107777 8317 1383 705 1806 107664 107543 355 1238 1172 2845 8088 4958 2825 57 24215 4012 3947 1309 410 330 249
is_linear=0
shrinkage=0.05


Tree=13
num_leaves=31
num_cat=0
split_feature=18 6 47 44 2 1 2 53 83 0 14 16 6 26 0 4 0 0 39 4 3 0 6 0 2 11 2 2 2 1
split_gain=17119.3 11719.4 3151.45 1606.99 385.183 300.869 422.398 242.553 222.051 210.231 186.946 146.343 132.667 113.428 62.9668 50.9376 42.3312 37.6017 34.8996 98.193 34.0219 33.9257 30.5016 24.9274 21.9709 21.6063 21.0468 19.6309 32.0931 31.4634
threshold=1.0000000180025095e-35 0.94451271578787244 1.0000000180025095e-35 1.0000000180025095e-35 -0.014013403671752597 4.3948625492726174 -0.014080039004236752 1.0000000180025095e-35 1.0000000180025095e-35 -2.1040754825960453 -0.0051716168284587248 1.0000000180025095e-35 -0.093287234771949099 1.0000000180025095e-35 0.75565136990820581 -0.014122284874305691 0.60833886781090929 1.1413939502152606 1.0000000180025095e-35 -0.014558085273784046 -0.015324316203593034 0.78305834704258659 1.1785264301297931 0.03882082067254191 -0.002969521643163121 0.20230775745339041 0.079590249938961674 -0.014080235173064774 -0.014080248966185495 -1.0000000180025095e-35
decision_type=2 2 2 2 2 2 2 2 2 2 2 2 2 2 2 2 2 2 2 2 2 2 2 2 2 2 2 2 2 2
left_child=1 5 3 4 17 7 -7 -1 -9 -3 11 13 -6 15 -8 18 -15 25 -10 26 -17 -18 -11 -24 -4 -2 -20 28 -5 -30
right_child=2 9 24 27 12 6 14 8 10 22 -12 -13 -14 16 -16 20 21 -19 19 -21 -22 -23 23 -25 -26 -27 -28 -29 29 -31
leaf_value=-0.081092680470106371 0.052040205323665517 0.05838046846328563 0.056355601745536388 -0.075730236065847736 -0.079656855057124595 0.054194098563549647 -0.082182929753198894 -0.08749743616338293 0.055703626305753901 -0.082815289016849591 -0.0663868011153564 -0.048986265466827286 0.038516182822119119 0.024678071935891017 0.032189683401370323 -0.090630649091345439 -0.092921438354125266 -0.089832485934651277 0.054504334581858153 -0.08708920343787574 0.046809890545190858 0.0082293998840358967 0.040032437367952894 -0.070722158337691618 -0.035038249477164538 -0.026347430207685676 -0.094903951391017177 -0.082506259092518131 0.066206957631750205 -0.094451995339608588
leaf_weight=33.412947684526443 298.78712552040815 26.981583744287491 503.14637778699398 942.02753861248493 105.8209452778101 161.12548930197954 107.5692698135972 27.728518530726433 10999.238616429269 1905.4977420717478 32.06601394712925 34.05059814453125 30.62297560274601 72.316080145537853 13.549760296940802 9.9336500763893145 16.978789478540421 4.9028425216674796 68.255396403372288 16.212146088480949 8.2356814667582494 16.197706036269665 9.1256529688835162 11.460604041814802 6.6629544124007216 9.0572126954793912 2.4414075538516036 4829.668906390667 7.8545436412096024 4.979357957839964
leaf_count=139 2768 239 4918 3898 439 1547 514 115 107187 7961 153 139 266 530 118 44 84 20 655 70 67 104 70 55 40 57 14 20116 32 20
internal_value=0.000752811 0.0331055 -0.0643619 -0.0741368 0.0169638 0.0521541 0.0011616 0.0534236 0.0538212 -0.0802197 0.0541687 0.0545126 -0.0531345 0.0548269 -0.0693879 0.0553172 0.00322511 0.047546 0.0554543 0.0238941 -0.0283325 -0.0435367 -0.0821613 -0.0216259 0.0551611 0.0497339 0.0493447 -0.0812111 -0.0746603 0.00387374
internal_weight=20315.9 13572.4 6743.53 6233.72 449.191 11619.3 282.245 11337.1 11303.7 1953.07 11275.9 11243.9 136.444 11209.8 121.119 11104.3 105.493 312.747 11086.1 86.909 18.1693 33.1765 1926.08 20.5863 509.809 307.844 70.6968 5784.53 954.861 12.8339
internal_count=152379 119805 32574 27616 3550 111480 2179 109301 109162 8325 109047 108894 705 108755 632 108037 718 2845 107926 739 111 188 8086 125 4958 2825 669 24066 3950 52
is_linear=0
shrinkage=0.05


Tree=14
num_leaves=31
num_cat=0
split_feature=17 6 46 45 2 1 9 8 83 0 6 8 15 26 3 58 4 6 0 2 6 6 11 0 1 4 30 0 3 2
split_gain=15961.6 11015.6 2889.75 1459.77 358.65 292.105 490.853 246.799 206.01 178.97 121.494 121.357 108.612 91.423 76.6418 68.4951 50.6619 47.2298 35.0126 29.1523 21.3658 21.128 20.5859 20.1703 19.7642 34.1582 19.4602 23.0185 19.399 19.2176
threshold=1.0000000180025095e-35 0.91398918783023075 1.0000000180025095e-35 1.0000000180025095e-35 -0.014013403671752597 4.3948625492726174 -0.040406588269244918 0.026953396207241107 1.0000000180025095e-35 -2.1040754825960453 -0.072938216133521236 -0.0070504770914588026 1.0000000180025095e-35 1.0000000180025095e-35 -0.015433484281253197 1.0000000180025095e-35 -0.013604930886178748 -0.10346174409116304 1.1413939502152606 0.18618520027739094 0.34421666595425021 -0.083112725452735167 0.20230775745339041 -2.1025086108412698 -0.14110873265636845 1.0000000180025095e-35 1.0000000180025095e-35 0.6416149747386023 -0.015462566392759032 -0.014080235173064774
decision_type=2 2 2 2 2 2 2 2 2 2 2 2 2 2 2 2 2 2 2 2 2 2 2 2 2 2 2 2 2 2
left_child=2 5 21 23 18 7 17 8 -2 -3 -9 -6 13 26 -15 -12 -17 -7 22 24 -18 -1 -5 -4 25 -11 -10 -28 -24 -25
right_child=1 9 3 4 11 6 -8 10 12 19 15 -13 -14 14 -16 16 20 -19 -20 -21 -22 -23 28 29 -26 -27 27 -29 -30 -31
leaf_value=0.055784190468458644 -0.083812419841278074 0.057477256938308408 -0.040772152106957331 0.051450991427560655 -0.076495034469690359 -0.11740557034046646 -0.090827219383495333 -0.087585938248118986 0.055315610524443587 0.061580230393000951 -0.083420605284228441 0.038593697189094618 -0.05067678903380244 0.047401357540701329 -0.07241008889250497 0.039918386787107005 -0.066481336412017228 0.053533865134255426 -0.086447785689793208 0.027657686124907523 0.047905353510735979 -0.050606212200709447 -0.089562022159220323 -0.072016721415760473 -0.080378555281182623 -0.085647872587702567 0.046411556082596499 -0.12202589693346616 0.05733592031722784 -0.079839522927420914
leaf_weight=483.73075101524591 26.919729635119438 24.136248111724854 35.563397720456123 287.38780125975609 104.84921030700207 4.1356808692216864 94.984430074691772 34.621825963258743 10528.343544952571 6.6975148320198068 15.665083885192869 29.308162525296211 24.405350133776665 27.718068599700928 25.745784588158131 119.19431993365288 18.06701468676329 176.20857163518667 4.8415767997503272 6.3208621591329566 5.2740205749869338 4.7119868844747534 5.1022201031446457 940.77421447634697 1868.5258488208055 9.567266970872879 5.106136776506899 3.365054726600647 4.0167375504970533 4743.8964197933674
leaf_count=4936 113 229 148 2768 441 17 402 148 107102 51 66 264 121 232 123 1046 89 1760 20 42 34 22 21 3950 7955 40 52 34 36 20117
internal_value=0.000760951 0.0329306 -0.0623032 -0.0715917 0.0166516 0.0520224 0.00116371 0.0533148 0.0543306 -0.0778146 -0.00274655 -0.0513526 0.0546809 0.0549237 -0.0102944 0.0158204 0.0267273 0.0496139 0.0469264 -0.0795414 -0.0406351 0.0547578 0.0491042 -0.0783101 -0.0799009 -0.0250223 0.0552547 -0.0204977 -0.0248561 -0.0785449
internal_weight=19669.2 13025 6644.18 6155.74 435.506 11109.8 275.329 10834.4 10641.6 1915.25 192.822 134.157 10614.7 10590.3 53.4639 158.2 142.535 180.344 301.348 1891.11 23.341 488.443 296.507 5720.23 1884.79 16.2648 10536.8 8.47119 9.11896 5684.67
internal_count=152379 119656 32723 27765 3550 111339 2179 109160 107777 8317 1383 705 107664 107543 355 1235 1169 1777 2845 8088 123 4958 2825 24215 8046 91 107188 86 57 24067
is_linear=0
shrinkage=0.05


Tree=15
num_leaves=31
num_cat=0
split_feature=17 6 46 44 1 9 6 9 50 83 15 0 26 5 4 6 0 39 4 0 0 3 80 6 3 56 20 6 0 59
split_gain=14840.7 10313.8 2662.93 1335.86 278.642 454.243 242 276.003 198.29 195.755 173.5 164.725 121.111 55.487 46.7128 43.5173 42.4971 34.4712 88.0283 33.3703 33.0462 29.3306 28.4905 25.9063 22.767 22.4835 21.6139 20.0017 19.8589 19.1402
threshold=1.0000000180025095e-35 0.91398918783023075 1.0000000180025095e-35 1.0000000180025095e-35 4.3948625492726174 -0.040406588269244918 -0.093287234771949099 -0.038681595453580582 1.0000000180025095e-35 1.0000000180025095e-35 1.0000000180025095e-35 -2.1040754825960453 1.0000000180025095e-35 -0.0067908174892327275 -0.014122284874305691 -0.10346174409116304 0.61981155591367332 1.0000000180025095e-35 -0.014558085273784046 0.67388191002762621 0.49555065861544906 -0.015131509515475277 1.0000000180025095e-35 1.1785264301297931 -0.015463392589108628 1.0000000180025095e-35 1.0000000180025095e-35 -0.083112725452735167 -2.1025086108412698 1.0000000180025095e-35
decision_type=2 2 2 2 2 2 2 2 2 2 2 2 2 2 2 2 2 2 2 2 2 2 2 2 2 2 2 2 2 2
left_child=2 4 27 6 8 15 7 24 9 -2 12 -3 14 16 17 -6 25 -11 -19 -18 -9 -16 -12 -13 -4 -14 -25 -1 -5 -21
right_child=1 11 3 28 5 -7 -8 20 -10 10 22 23 13 -15 21 -17 19 18 -20 29 -22 -23 -24 26 -26 -27 -28 -29 -30 -31
leaf_value=0.055429561239437757 -0.0812276135616362 0.057078242805754346 0.053447625326208996 -0.038687055110667494 -0.1100230262430406 -0.087554288140452297 0.05352627472607472 0.022109881401649253 -0.078145098010001024 0.054961486353010014 -0.075604342256581081 -0.07784379938578373 -0.086281215164190794 -0.070923520680863869 -0.075440827202187158 0.053080988047901081 -0.11572601089366695 0.048221129104220828 -0.081925231996124948 0.032737574021077541 -0.076832660328821537 0.057971037208379164 0.058166010922221234 -0.071175089125494195 -0.084003382873454199 0.050992338899791594 0.032972124072141056 -0.047308406142624944 -0.076147712087836744 -0.085145383908016209
leaf_weight=463.00829204916954 26.980172887444496 23.115541346371174 79.932825192809105 35.604922190308571 4.1909316182136527 93.64179627597332 214.87313915789127 9.1094439774751645 28.781238302588463 10086.917978838086 30.143148422241211 1831.4599071592093 3.1562506705522528 21.470758378505707 11.232639983296396 169.00873598456383 8.3360059708356875 65.255458690226078 16.222673803567886 14.32670456916094 114.67590894550085 6.5059201270341864 4.5859038680791846 10.247641012072563 3.1306559443473807 54.2917076125741 9.6944722086191177 4.7864229530096045 5573.2672797292471 4.5328374207019797
leaf_count=4936 115 229 807 148 17 402 2184 47 125 107175 127 7963 13 91 53 1760 38 669 70 105 499 58 38 46 13 464 79 22 24067 19
internal_value=0.000767592 0.0325797 -0.0605427 -0.0694571 0.0516161 0.00116665 0.0163642 -0.0222395 0.0529127 0.053277 0.0536284 -0.0755704 0.0540048 0.000864473 0.0545584 0.0491343 0.0190743 0.0546998 0.0223084 -0.0324179 -0.0695514 -0.0265097 -0.0579402 -0.0772266 0.0482671 0.0434504 -0.0205459 0.0543784 -0.0759099 0.00440474
internal_weight=19022.5 12524.1 6498.39 6030.59 10649.6 266.841 421.722 206.849 10382.7 10354 10327 1874.52 10292.2 106.114 10186.1 173.2 84.6435 10168.4 81.4781 27.1955 123.785 17.7386 34.7291 1851.4 83.0635 57.448 19.9421 467.795 5608.87 18.8595
internal_count=152379 119656 32723 27765 111339 2179 3550 1366 109160 109035 108920 8317 108755 730 108025 1777 639 107914 739 162 546 111 165 8088 820 477 125 4958 24215 124
is_linear=0
shrinkage=0.05


Tree=16
num_leaves=31
num_cat=0
split_feature=17 6 46 44 2 1 9 53 83 15 0 26 6 4 6 39 4 0 0 0 3 2 80 2 7 2 2 7 42 7
split_gain=13820 9668.5 2459.72 1226.04 315.046 265.799 421.276 201.714 183.887 163.739 152.002 106.466 100.961 43.2648 40.2626 33.6948 80.9594 33.6936 30.8833 27.6842 26.3749 26.2658 26.2183 25.595 23.0969 20.4524 20.4444 49.6591 171.503 58.7862
threshold=1.0000000180025095e-35 0.91398918783023075 1.0000000180025095e-35 1.0000000180025095e-35 -0.014013403671752597 4.3948625492726174 -0.040406588269244918 1.0000000180025095e-35 1.0000000180025095e-35 1.0000000180025095e-35 -2.1040754825960453 1.0000000180025095e-35 -0.093287234771949099 -0.014122284874305691 -0.10346174409116304 1.0000000180025095e-35 -0.014558085273784046 0.61981155591367332 1.1413939502152606 0.78305834704258659 -0.015131509515475277 0.18618520027739094 1.0000000180025095e-35 0.086710761537391892 -0.032305007515951327 -0.002969521643163121 -0.014080235173064774 -0.031788347884211247 1.0000000180025095e-35 -0.028410188753603061
decision_type=2 2 2 2 2 2 2 2 2 2 2 2 2 2 2 2 2 2 2 2 2 2 2 2 2 2 2 2 2 2
left_child=2 5 25 4 18 7 14 -2 -9 11 -3 13 -6 15 -7 -10 23 -13 24 -19 -15 -12 -11 -17 -4 -1 27 -5 29 -29
right_child=1 10 3 26 12 6 -8 8 9 22 21 17 -14 20 -16 16 -18 19 -20 -21 -22 -23 -24 -25 -26 -27 -28 28 -30 -31
leaf_value=0.055326042747888084 -0.073854743652747579 0.056702766737050214 -0.029379242073521175 -0.07542880574088609 -0.071917255158153934 -0.10383990125867854 -0.084647077445457575 -0.078572083510762669 0.054605829823376154 -0.073150919847772486 -0.075489931532184029 0.022302390221530598 0.035677603339724411 -0.07100662290309738 0.052642260424992197 0.053280693968668295 -0.077441386190300485 -0.085007677144243163 -0.081368619254707675 0.0079120545144726381 0.057530725079405778 0.027477398014346361 0.057704571851593292 -0.13163085859543708 0.050804397325142393 -0.033202134633498803 -0.075112070957933139 0.016055266361063004 -0.077921175543956431 -0.076426934800586821
leaf_weight=441.27085360884666 31.466778144240379 22.130097188055515 9.2955732494592649 601.24890549480915 100.81035210192204 4.2176392078399649 92.054872676730156 26.509297311306 9655.8868242949247 29.609893962740898 1802.6285508424044 68.792784504592419 27.819479778409004 11.089125826954843 162.0721283107996 60.930073298513889 16.301581084728241 16.455710634589195 4.6853843927383414 15.629489481449125 6.2347861379384986 6.2147810459136954 4.3962443619966498 1.9307031780481327 265.34953038394451 6.6220095306634894 4565.928268045187 91.387196198105812 208.52450866997242 21.161967799067497
leaf_count=4918 139 229 52 2639 439 17 402 115 107175 127 8046 534 266 52 1760 660 70 79 20 104 58 42 38 9 2773 40 20203 379 907 87
internal_value=0.000773307 0.0322534 -0.0589434 -0.0675243 0.0161023 0.051238 0.00116785 0.0525386 0.0529398 0.0532924 -0.0735427 0.0536704 -0.0486471 0.054199 0.0486734 0.0543395 0.0218518 0.00256789 0.045919 -0.0397442 -0.0247467 -0.0751362 -0.0562342 0.0476013 0.0480905 0.0540172 -0.0737405 -0.0669506 -0.0510742 -0.00133363
internal_weight=18378.7 12034.6 6344.1 5896.21 407.96 10203.6 258.345 9945.23 9913.77 9887.26 1830.97 9853.25 128.63 9752.37 166.29 9735.05 79.1624 100.878 279.33 32.0852 17.3239 1808.84 34.0061 62.8608 274.645 447.893 5488.25 922.323 321.074 112.549
internal_count=152379 119656 32723 27765 3550 111339 2179 109160 109021 108906 8317 108741 705 108024 1777 107914 739 717 2845 183 110 8088 165 669 2825 4958 24215 4012 1373 466
is_linear=0
shrinkage=0.05


Tree=17
num_leaves=31
num_cat=0
split_feature=18 7 46 45 1 2 1 2 50 83 28 15 16 26 7 5 5 4 1 0 39 4 0 2 80 2 7 0 2 7
split_gain=12832.8 8733.57 2283.53 1135.68 469.48 293.906 251.62 319.076 175.24 149.467 129.316 129.002 119.831 110.275 91.0836 85.663 46.0009 44.1185 36.62 34.8332 33.462 74.0929 28.8423 25.0028 23.4319 23.187 21.9746 21.8614 20.0343 47.8811
threshold=1.0000000180025095e-35 0.14721434298942729 1.0000000180025095e-35 1.0000000180025095e-35 -0.14110873265636845 -0.014013403671752597 4.3948625492726174 -0.014080039004236752 1.0000000180025095e-35 1.0000000180025095e-35 1.0000000180025095e-35 1.0000000180025095e-35 1.0000000180025095e-35 1.0000000180025095e-35 -0.030317855086181806 -0.0062576228459250956 -0.0067908174892327275 -0.013435820387945495 0.33075044263368497 0.5981143656822886 1.0000000180025095e-35 -0.014558085273784046 1.1413939502152606 0.18618520027739094 1.0000000180025095e-35 0.086710761537391892 -0.032305007515951327 0.78305834704258659 -0.014080235173064774 -0.031788347884211247
decision_type=2 2 2 2 2 2 2 2 2 2 2 2 2 2 2 2 2 2 2 2 2 2 2 2 2 2 2 2 2 2
left_child=1 6 -2 28 15 22 8 -8 9 -1 -9 12 13 17 -7 -3 19 20 -6 -15 -11 25 26 -19 -13 -22 -5 -21 29 -4
right_child=2 4 3 5 18 14 7 10 -10 11 -12 24 -14 16 -16 -17 -18 23 -20 27 21 -23 -24 -25 -26 -27 -28 -29 -30 -31
leaf_value=-0.075505671545444478 0.053668521324953637 0.0525572890225946 -0.073500875948246849 -0.02754843859574296 -0.074202526378087996 -0.069330033549473757 0.052651036575243663 -0.085286936780491374 -0.074180779682902417 0.054284476667938758 0.055815015729744503 -0.070126868680095558 -0.041692793597501387 0.04184267843273981 0.034600030912647323 -0.075910733993440921 -0.068847777972998195 -0.087133210289807431 0.052245444141124212 -0.076742499895431693 0.05280997071285172 -0.073415744080549447 -0.078955458276459764 0.052185474103190403 0.057272569943259057 -0.11998150640403248 0.050237036380617467 0.017094470173909106 -0.073411235002489694 -0.048978061017583174
leaf_weight=22.79839164018631 428.76201465725899 91.408574476838112 586.91116668283939 9.4144929498434049 1746.103341691196 99.146193519234657 136.52484916895628 93.714975893497467 27.43752820789814 9192.4782397598028 19.640939950942993 25.198729440569881 33.291962057352066 48.899910278618336 26.774288475513458 15.1228736564517 19.589907810091972 8.6813246905803663 5.744623824954032 12.695834353566172 56.962746880948544 16.334631606936455 4.5895737558603278 5.1195182278752318 4.2125802487134925 2.0100247561931601 255.1870928555727 12.14380459487438 4435.3835357427597 301.20378087460995
leaf_count=101 4958 955 2638 52 7974 442 1547 421 125 106605 211 110 136 431 263 67 83 37 45 62 644 70 20 49 38 9 2773 85 20116 1312
internal_value=0.000777421 0.0317374 -0.057624 -0.0659683 -0.0675906 0.0158201 0.0506934 0.00116764 0.0519978 0.0523637 -0.0608385 0.0526726 0.0529995 0.0533357 -0.0472315 0.0343204 -0.000742923 0.0538795 -0.0737879 0.0173501 0.0540125 0.0208189 0.045314 -0.035452 -0.0518795 0.0469206 0.0474694 -0.0308667 -0.0720387 -0.065184
internal_weight=17743.5 11596.1 6147.37 5718.61 1858.38 395.112 9737.74 249.881 9487.86 9460.42 113.356 9437.62 9408.21 9374.92 125.92 106.531 93.3295 9281.59 1751.85 73.7395 9267.79 75.3074 269.191 13.8008 29.4113 58.9728 264.602 24.8396 5323.5 888.115
internal_count=152379 119805 32574 27616 9041 3550 110764 2179 108585 108460 632 108359 108211 108075 705 1022 661 107414 8019 578 107328 723 2845 86 148 653 2825 147 24066 3950
is_linear=0
shrinkage=0.05


Tree=18
num_leaves=31
num_cat=0
split_feature=17 6 46 44 1 9 8 8 9 1 7 15 89 26 3 7 85 6 5 58 7 30 1 80 6 5 6 7 3 1
split_gain=12030.8 8519.64 2111.35 1043.4 241.456 363.075 212.643 210.394 233.881 130.75 93.6255 88.2196 86.0341 81.068 60.6778 59.8885 59.3506 36.4596 30.1311 40.2222 22.7966 21.4143 20.7076 20.1098 19.4555 17.6879 16.4628 14.9327 14.7642 14.1537
threshold=1.0000000180025095e-35 0.91398918783023075 1.0000000180025095e-35 1.0000000180025095e-35 4.3948625492726174 -0.040406588269244918 0.026953396207241107 -0.0070504770914588026 -0.038681595453580582 -0.29504911395825945 -0.027376869490122909 1.0000000180025095e-35 1.0000000180025095e-35 1.0000000180025095e-35 -0.015433484281253197 0.0061265204757912231 1.0000000180025095e-35 -0.10346174409116304 -0.0067976713153740523 1.0000000180025095e-35 0.15605717130190166 1.0000000180025095e-35 -0.29892092606366333 1.0000000180025095e-35 -0.083112725452735167 0.054755385192802784 -0.011891160218237624 -0.027376869490122909 -0.015463392589108628 -0.037501908724727806
decision_type=2 2 2 2 2 2 2 2 2 2 2 2 2 2 2 2 2 2 2 2 2 2 2 2 2 2 2 2 2 2
left_child=2 4 24 7 6 17 11 8 28 -3 -8 12 13 16 -15 -12 21 -6 19 -17 -11 -2 26 -13 -1 -22 27 -5 -4 -21
right_child=1 9 3 22 5 -7 10 -9 -10 20 15 23 -14 14 -16 18 -18 -19 -20 29 25 -23 -24 -25 -26 -27 -28 -29 -30 -31
leaf_value=0.054485910977599805 0.053901383889779157 0.056035622230585107 0.052390070205740658 0.026404579937565082 -0.097474591040626182 -0.079625974182155557 -0.080131424670102258 0.052591897508915492 -0.065975107577087092 -0.072200299060808271 0.055831702106175878 -0.065968960776391833 -0.071460786845932239 0.045611551363389263 -0.06381312822558291 -0.076146437002433329 -0.080467875711037556 0.051803907909346449 -0.060385408018303159 0.030451716992223446 0.014695183746898408 -0.030090118775433456 -0.070255233569630565 0.056867755487591078 -0.047050133687325052 -0.075492589444909469 0.047956004386509321 -0.063547723889661484 -0.049795677548739779 -0.092810241539912103
leaf_weight=405.78583516180515 8840.7736379206181 20.323209643363953 71.206390179693699 5.696808502078059 4.205805078148841 88.232489824295044 31.960385546088219 191.45852169394493 116.21041937172413 1694.2800001353025 54.383506566286087 19.122808188200001 13.830091357231138 25.057523474097252 25.624440170824528 12.070812433958052 8.2344607263803464 148.97030004858971 22.781337797641754 51.302841626107693 13.491572424769403 7.5953227877616873 5189.432445153594 4.0349319130182257 4.7733100503683081 9.1057090759277326 5.4597140699625006 24.268283188343048 3.7194714024662963 2.4396505355834952
leaf_count=4936 107111 229 807 23 17 402 145 2186 537 7948 624 85 66 232 124 55 35 1760 104 441 99 86 24067 38 22 41 26 99 20 14
internal_value=0.000780801 0.03165 -0.0561452 -0.0641588 0.0505227 0.00116685 0.0518293 0.0155451 -0.0215642 -0.0700425 -0.00276487 0.0528971 0.0531501 0.0533436 -0.00971279 0.0145291 0.0537044 0.0477051 -0.0108243 0.00633133 -0.0715349 0.0538293 -0.0699952 -0.0445663 0.0533054 -0.0216465 -0.031897 -0.0464465 0.0473174 0.0248562
internal_weight=17115.8 11097.8 6018.01 5607.45 9360.62 241.409 9119.21 382.595 191.136 1737.2 174.939 8944.27 8921.12 8907.29 50.682 142.978 8856.6 153.176 88.5946 65.8133 1716.88 8848.37 5224.86 23.1577 410.559 22.5973 35.4248 29.9651 74.9259 53.7425
internal_count=152379 119656 32723 27765 111339 2179 109160 3550 1364 8317 1383 107777 107654 107588 356 1238 107232 1777 614 510 8088 107197 24215 123 4958 140 148 122 827 455
is_linear=0
shrinkage=0.05


Tree=19
num_leaves=31
num_cat=0
split_feature=17 6 46 44 1 8 8 8 4 83 1 7 6 15 26 7 3 4 58 0 30 0 0 0 8 6 4 6 6 3
split_gain=11243.6 8007.84 1961.11 965.412 230.054 287.715 204.121 198.128 208.925 152.568 121.691 86.5755 85.1135 81.6822 77.1572 56.7161 54.8106 53.4103 27.07 26.3231 20.6559 21.1274 20.1717 19.9241 19.5608 18.4629 17.5492 18.8127 15.0056 14.1295
threshold=1.0000000180025095e-35 0.91398918783023075 1.0000000180025095e-35 1.0000000180025095e-35 4.3948625492726174 -0.0070504770914588026 0.026953396207241107 -0.0070504770914588026 -0.014738948035883692 1.0000000180025095e-35 -0.14110873265636845 -0.027376869490122909 -0.10346174409116304 1.0000000180025095e-35 1.0000000180025095e-35 0.0061265204757912231 -0.015430124416098165 1.0000000180025095e-35 1.0000000180025095e-35 0.49555065861544906 1.0000000180025095e-35 0.6416149747386023 -2.1025086108412698 0.55376392787762219 1.1042579275342337 -0.083112725452735167 -0.013323792314206136 0.34421666595425021 -0.011891160218237624 -0.015463392589108628
decision_type=2 2 2 2 2 2 2 2 2 2 2 2 2 2 2 2 2 2 2 2 2 2 2 2 2 2 2 2 2 2
left_child=2 4 25 7 6 12 9 8 29 -2 17 -8 -6 14 20 -13 -16 -3 -17 -10 -11 -22 28 -15 -12 -1 -20 -28 -5 -4
right_child=1 10 3 22 5 -7 11 -9 19 13 24 15 -14 23 16 18 -18 -19 26 -21 21 -23 -24 -25 -26 -27 27 -29 -30 -31
leaf_value=0.054199420976302419 -0.072322981793462623 0.05754492588661321 0.050039728315349724 -0.044468696235572085 -0.090944918940156161 -0.076428117056367165 -0.077879148166477979 0.052188833881847918 0.022501558492031604 0.053618560763681627 -0.070785132179162713 0.055528642760142521 0.051398357054695865 0.066040152956094306 0.04354998274189939 -0.073921803995790944 -0.061494257356549634 -0.08045486745941334 0.0169665141374147 -0.070145839465001317 0.043878888818090878 -0.12248217783643037 -0.068615067110730912 -0.063551388404033446 0.04616281671287556 -0.044092936816865436 -0.064855986301226215 0.047676333170729113 0.046371942019077239 -0.052240318930941311
leaf_weight=387.98417662829161 24.382010444998741 27.039717137813568 69.355928666889668 29.740937530994415 11.335479095578192 78.989606022834778 31.258239671587944 183.49207352101803 8.2688003629446012 8455.3826835379004 1647.7902097404003 52.006379626691341 142.79486870765686 3.5272619426250484 24.844700746238232 14.082680866122244 24.828275814652443 9.4660067558288556 52.823579423129559 105.2936015278101 4.4239355176687232 3.3563706800341606 5051.3115738034248 18.638236492872238 3.5833136290311804 4.8370550125837317 15.407278455793859 4.8935512006282798 5.3663074523210517 3.5494607910513869
leaf_count=4936 113 287 812 122 46 373 145 2186 43 107102 7956 624 1760 32 235 66 120 44 437 490 52 34 24067 89 30 22 77 34 26 19
internal_value=0.000783678 0.0313706 -0.0549123 -0.0626804 0.0501846 0.0011646 0.0514936 0.0153031 -0.0209941 0.0525726 -0.0685352 -0.00268229 0.0409298 0.0529294 0.0531789 0.014202 -0.00895477 0.0217613 -0.0104433 -0.0633999 0.0535436 -0.0278881 -0.0683526 -0.0429291 -0.0705314 0.0529891 0.00178168 -0.0377299 -0.0305833 0.0450601
internal_weight=16500.1 10650.9 5849.2 5456.38 8962.98 233.12 8729.86 369.96 186.468 8559.38 1687.88 170.472 154.13 8535 8512.84 139.213 49.673 36.5057 87.2071 113.562 8463.16 7.78031 5086.42 22.1655 1651.37 392.821 73.1244 20.3008 35.1072 72.9054
internal_count=152379 119656 32723 27765 111339 2179 109160 3550 1364 107777 8317 1383 1806 107664 107543 1238 355 331 614 533 107188 86 24215 121 7986 4958 548 111 148 831
is_linear=0
shrinkage=0.05


Tree=20
num_leaves=31
num_cat=0
split_feature=17 6 47 45 2 6 39 4 6 56 4 6 83 15 83 5 6 31 2 2 2 6 4 2 7 43 7 7 7 16
split_gain=10518.6 7532.57 1824.33 894.561 244.839 216.356 141.007 122.394 104.372 78.3406 73.2321 72.5314 71.8009 66.7949 64.7846 55.1636 48.4382 44.9219 43.1292 40.2788 31.9958 28.6742 73.7116 23.0165 51.3441 173.447 56.5541 41.984 91.1937 21.9137
threshold=1.0000000180025095e-35 0.91398918783023075 1.0000000180025095e-35 1.0000000180025095e-35 -0.013945395923756774 -0.042414688175879428 1.0000000180025095e-35 -0.014555083613316007 1.1225666288741165 1.0000000180025095e-35 -0.014509956955093115 -0.10346174409116304 1.0000000180025095e-35 1.0000000180025095e-35 1.0000000180025095e-35 -0.0067132784199953307 -0.093287234771949099 1.0000000180025095e-35 -0.014079832107425947 0.18618520027739094 -0.012042365954540134 -0.093287234771949099 -0.014738388404271005 -0.014080235173064774 -0.031788347884211247 1.0000000180025095e-35 -0.028410188753603061 -0.031629375689829688 -0.031748604835615861 1.0000000180025095e-35
decision_type=2 2 2 2 2 2 2 2 2 2 2 2 2 2 2 2 2 2 2 2 2 2 2 2 2 2 2 2 2 2
left_child=2 5 3 23 21 6 12 9 -3 -7 17 18 -2 -14 -11 -12 -6 -9 -8 -13 -10 22 -5 24 -1 -26 27 28 -27 -25
right_child=1 8 -4 4 16 7 11 10 20 14 15 19 13 -15 -16 -17 -18 -19 -20 -21 -22 -23 -24 29 25 26 -28 -29 -30 -31
leaf_value=-0.068477916230824595 -0.071296623024458702 -0.069067707001773296 0.052685740216982684 0.049700184087452193 -0.065392682592570209 -0.072263902625729362 0.054597420906807165 -0.060779796822554244 0.055286422825140957 -0.070189420092301669 0.037282497382179688 0.047161389690161572 0.053051624722555958 -0.041745638318158494 0.045459813691790668 -0.051043597741158103 0.024027094512050318 0.047847524035551585 -0.086343007871180211 -0.063518013023292283 -0.041091342336665677 0.05476149852371627 -0.044487447862479504 -0.068640845522096858 -0.071405492804629864 0.0768953040542735 -0.067755728121303663 0.057867031808481344 -0.073037044274367871 -0.016239185181861265
leaf_weight=541.9390132278204 11.667718872427939 1601.2350187003613 375.77246852219105 66.142709076404572 85.509148821234703 15.896886870265005 6.5547920390963546 76.008647173643112 21.702568680047989 12.566314920783041 73.544974707067013 45.871710456907749 7911.1310385018587 18.625727042555809 333.11005098372698 23.270539201796055 18.404350586235523 10.87974466383457 31.57616763561964 10.014868214726446 14.276276141405104 156.99765332788229 30.282988145947456 4084.2529495060444 190.3650233745575 17.258864298462868 20.143406927585602 46.367756187915802 24.593696057796478 20.049003884196281
leaf_count=2639 52 7968 4958 810 409 76 85 410 259 63 761 563 104550 103 4246 110 196 128 142 50 90 1988 147 20116 907 74 87 197 108 87
internal_value=0.000785952 0.0311056 -0.0537754 -0.0613203 0.0150783 0.0498577 0.0519259 0.0193796 -0.0671753 0.0362646 -0.0138543 -0.00894788 0.0526466 0.052829 0.0412556 0.0160525 -0.0495553 -0.047178 -0.0621151 0.0273277 0.0170441 0.0415807 0.0201201 -0.066841 -0.0593038 -0.0426604 0.00783664 0.0250967 -0.011209 -0.0683849
internal_weight=15896 10217.9 5678.08 5302.31 357.337 8580.72 8035.44 545.277 1637.21 361.573 183.704 94.0175 7941.42 7929.76 345.676 96.8155 103.913 86.8884 38.131 55.8866 35.9788 253.423 96.4257 4944.97 840.668 298.729 108.364 88.2203 41.8526 4104.3
internal_count=152379 119656 32723 27765 3550 111339 105545 5794 8317 4385 1409 840 104705 104653 4309 871 605 538 227 613 349 2945 957 24215 4012 1373 466 379 182 20203
is_linear=0
shrinkage=0.05


Tree=21
num_leaves=31
num_cat=0
split_feature=17 6 46 44 2 1 9 8 7 89 15 7 8 7 58 6 6 1 4 20 5 58 11 2 7 43 7 11 1 2
split_gain=9848.45 7086.99 1699.74 831.237 229.34 217.404 301.507 193.814 100.054 75.9866 75.5748 74.4658 71.4929 52.8548 34.4483 32.5237 32.169 204.347 60.2379 30.7319 26.9169 32.717 22.8325 22.7985 49.8367 163.424 51.5887 66.8754 21.8222 21.0205
threshold=1.0000000180025095e-35 1.0615195729588327 1.0000000180025095e-35 1.0000000180025095e-35 -0.014020266515595419 4.3948625492726174 -0.040406588269244918 0.026953396207241107 0.15605717130190166 1.0000000180025095e-35 1.0000000180025095e-35 -0.027376869490122909 -0.0070504770914588026 0.0061265204757912231 1.0000000180025095e-35 -0.10346174409116304 1.0000000180025095e-35 -0.12913479521928609 -0.014567242881991623 1.0000000180025095e-35 -0.0067976713153740523 1.0000000180025095e-35 0.20230775745339041 -0.014080235173064774 -0.031788347884211247 1.0000000180025095e-35 -0.028410188753603061 0.20230775745339041 -0.29892092606366333 -0.002969521643163121
decision_type=2 2 2 2 2 2 2 2 2 2 2 2 2 2 2 2 2 2 2 2 2 2 2 2 2 2 2 2 2 2
left_child=2 5 29 4 22 7 15 9 -3 10 14 -9 -6 -13 -2 -7 -16 18 -18 -10 21 -15 -4 24 -5 -26 27 -27 -25 -1
right_child=1 8 3 23 12 6 -8 11 19 -11 -12 13 -14 20 16 -17 17 -19 -20 -21 -22 -23 -24 28 25 26 -28 -29 -30 -31
leaf_value=0.053965585188220193 -0.06136176227202992 -0.067987759693457092 0.047003795753886551 -0.067077878650711242 -0.062713230277970086 -0.091446143020214157 -0.074988044133541487 -0.074570484326821729 -0.061436289141103752 -0.067718354225094757 -0.040721512363314075 0.055040756618785047 0.033186910667961554 -0.071251054713759587 0.052915069890009707 0.050595568670395302 0.05373312688659302 -0.34525637532441333 -0.042567572203588186 0.044801628267458996 -0.056101999938272855 0.023286360877497227 -0.035814882860637887 -0.014679095881963748 -0.069930477746187367 0.049015208329354153 -0.065582783115300178 -0.050973885975216307 -0.067292875624588744 -0.038343635403540861
leaf_weight=353.37320612370968 6.6477297246456137 1546.4223280847073 220.42228884994984 525.99242208898067 91.551584601402283 4.1580080837011328 82.714302137494087 29.728750064969063 9.206604987382887 13.243576079607008 21.844528689980507 47.857741303741932 24.671158999204636 11.113826110959051 7674.7915612235665 130.93988782912493 101.36680305749178 3.5753107815980902 19.336318992078304 26.120032876729965 23.510548032820225 51.839932560920715 8.6487273573875409 19.806416884064674 184.80231672525406 66.138270124793053 19.779523760080338 22.381444126367569 3961.1676653027534 6.2768001705408087
leaf_count=4918 31 7944 2761 2639 447 17 403 145 46 69 123 624 282 55 106062 1760 1362 31 113 304 110 457 60 86 907 280 87 99 20117 40
internal_value=0.00078618 0.0308361 -0.0527326 -0.060078 0.0148517 0.0494806 0.000193564 0.0508217 -0.0660871 0.0519471 0.0521496 -0.00296529 -0.042356 0.0128827 0.0524095 0.0462238 0.0525064 0.0272715 0.038306 0.0171146 -0.0104517 0.00659677 0.0438769 -0.0654681 -0.0578713 -0.0413495 0.00742125 0.0237338 -0.0670311 0.0523546
internal_weight=15309.4 9804.42 5505.01 5145.36 345.294 8222.67 217.812 8004.86 1581.75 7840.81 7827.56 164.051 116.223 134.322 7805.72 135.098 7799.07 124.278 120.703 35.3266 86.4643 62.9538 229.071 4800.07 819.094 293.102 108.299 88.5197 3980.97 359.65
internal_count=152379 119656 32723 27765 3550 111362 2180 109182 8294 107791 107722 1391 729 1246 107599 1777 107568 1506 1475 350 622 512 2821 24215 4012 1373 466 379 20203 4958
is_linear=0
shrinkage=0.05


Tree=22
num_leaves=31
num_cat=0
split_feature=17 6 46 44 6 1 6 9 39 1 26 7 83 15 15 0 1 9 59 0 6 0 3 9 0 6 3 15 6 7
split_gain=9229.34 6672.98 1585.43 774.539 207.834 340.389 165.414 170.511 130.898 105.043 99.6113 93.6647 69.063 60.0651 43.3859 41.8955 37.6867 127.054 33.5431 31.5403 29.2621 27.2676 19.5359 19.3834 19.0148 17.949 15.6934 15.3503 13.4863 12.6875
threshold=1.0000000180025095e-35 1.0615195729588327 1.0000000180025095e-35 1.0000000180025095e-35 -0.042414688175879428 -0.12913479521928609 -0.093287234771949099 -0.038681595453580582 1.0000000180025095e-35 -0.24407025457044179 1.0000000180025095e-35 0.15605717130190166 1.0000000180025095e-35 1.0000000180025095e-35 1.0000000180025095e-35 0.11511950798559994 4.3948625492726174 -0.040406588269244918 1.0000000180025095e-35 0.03882082067254191 -0.10346174409116304 0.49555065861544906 -0.015392229543529956 0.1390876182928184 -2.1025086108412698 -0.083112725452735167 -0.015463392589108628 1.0000000180025095e-35 -0.042414688175879428 -0.027376869490122909
decision_type=2 2 2 2 2 2 2 2 2 2 2 2 2 2 2 2 2 2 2 2 2 2 2 2 2 2 2 2 2 2
left_child=2 4 25 6 8 10 7 26 12 27 14 -3 -2 16 -6 -7 -14 20 22 -13 -18 -9 -12 -24 28 -1 -4 -10 29 -5
right_child=1 11 3 24 5 15 -8 21 9 -11 18 19 13 -15 -16 -17 17 -19 -20 -21 -22 -23 23 -25 -26 -27 -28 -29 -30 -31
leaf_value=0.053430854719890924 -0.070329464368359615 -0.066803122850714616 0.050857084376410878 0.024324225971920067 0.051870747045317259 -0.2488550973922512 0.050842046893597108 0.026831374110123204 0.053416283466290772 -0.063495602877112742 0.024099923428755173 0.048766861591277556 0.052998930684926886 -0.038201129651366891 -0.061108946861164859 -0.070374460277840764 -0.088801441255167576 -0.087773469409658092 -0.06623490566239941 -0.055099774604506574 0.050211783415110005 -0.064974583963729279 -0.069091374157946403 0.011426520708001226 -0.06447457592885357 -0.043716365682305004 -0.071571421867867677 -0.066916131444702889 0.037457117908610685 -0.05935734692638666
leaf_weight=339.13364156335592 11.509902581572531 1496.4209190309048 60.748262710869312 5.6868675798177746 324.4774030148983 3.4413401111960402 162.10550575703382 8.8002932220697385 41.017739117145538 44.342751659452915 55.556676097214222 23.728784881532192 7087.5417055040598 18.309721127152443 8.7259571105241758 73.766849465668201 3.9033427238464347 20.565273344516754 19.43132646381855 10.562331408262251 125.48193339258432 99.935958310961723 13.947748400270941 16.105277217924595 4619.6076411902905 4.822272077202796 2.7354033887386313 2.8333526104688636 6.5352070182561866 22.257706895470619
leaf_count=4936 52 7944 807 23 4568 25 2184 47 564 261 485 293 102689 103 46 406 16 85 97 57 1760 499 69 121 24067 22 13 15 31 94
internal_value=0.000786764 0.0305892 -0.0517589 -0.0589179 0.0491656 0.0184735 0.0145915 -0.0195301 0.0513164 -0.00923139 0.0355279 -0.0649308 0.0520512 0.0522453 0.048912 -0.0783297 0.0524741 0.0276689 -0.00692836 0.0167739 0.046018 -0.0575445 0.00653279 -0.0259422 -0.0641985 0.0520688 0.0455818 0.0456412 -0.0272055 -0.0423277
internal_weight=14734 9401.67 5332.37 4988.41 7870.96 515.453 334.325 172.22 7355.51 88.1938 438.244 1530.71 7267.31 7255.8 333.203 77.2082 7237.49 149.951 105.041 34.2911 129.385 108.736 85.6097 30.053 4654.09 343.956 63.4837 43.8511 34.4798 27.9446
internal_count=152379 119656 32723 27765 111362 5817 3550 1366 105545 840 5386 8294 104705 104653 4614 431 104550 1861 772 350 1776 546 675 190 24215 4958 820 579 148 117
is_linear=0
shrinkage=0.05


Tree=23
num_leaves=31
num_cat=0
split_feature=18 6 37 4 6 6 1 39 0 5 0 1 1 59 83 14 2 1 9 2 7 42 0 0 12 6 1 7 2 7
split_gain=8618.79 6242.56 861.323 849.512 782.142 197.338 316.855 123.867 121.706 109.932 98.8402 96.8577 86.3271 78.3546 65.0792 57.6953 40.6022 36.4196 118.266 32.5393 44.0865 177.141 70.3473 31.9274 30.7586 27.353 22.0232 21.8661 21.6441 20.3811
threshold=1.0000000180025095e-35 1.0615195729588327 1.0000000180025095e-35 -0.014738948035883692 -0.093287234771949099 -0.042414688175879428 -0.12913479521928609 1.0000000180025095e-35 -0.36474160620153734 -0.0067976713153740523 -2.1040754825960453 -0.24407025457044179 -0.30594754803272955 1.0000000180025095e-35 1.0000000180025095e-35 -0.0051716168284587248 -0.013930243414361059 4.3948625492726174 -0.040406588269244918 -0.014080235173064774 -0.031788347884211247 1.0000000180025095e-35 0.47390658268083635 0.11511950798559994 3.7529101684923001 -0.10346174409116304 -0.28981499759354673 -0.027436484063015996 -0.012654905418891521 -0.029364021919892434
decision_type=2 2 2 2 2 2 2 2 2 2 2 2 2 2 2 2 2 2 2 2 2 2 2 2 2 2 2 2 2 2
left_child=1 5 19 8 -5 7 9 12 -4 13 -3 -9 29 -7 -14 17 26 -16 25 20 24 22 -22 -8 -2 -19 -10 -6 -27 -1
right_child=2 10 3 4 27 6 23 11 16 -11 -12 -13 14 -15 15 -17 -18 18 -20 -21 21 -23 -24 -25 -26 28 -28 -29 -30 -31
leaf_value=0.060708808149112482 -0.064739308421804906 0.055273385491688969 -0.066040792073945573 -0.06422865566379872 0.052816767685538904 0.046647454465076114 -0.21952976599539756 0.045364376219509651 0.052973040834653921 -0.055852573166756792 -0.065116743382779119 -0.060821306095799124 -0.06828955035847141 -0.064363765594908834 0.052722501602399087 -0.043241346646270128 -0.042251331495235564 -0.085548360359275391 -0.084636291922473988 -0.065804192331602937 0.076314910282751447 -0.067424191596380967 -0.014721037177373109 -0.068885162240385767 0.023163693617480063 0.0522926660763606 0.13491670734047909 -0.00090138887910345326 -0.13310693036345123 -0.051293049507249056
leaf_weight=4.8436893224716213 492.71296453475952 17.249573968350887 23.218995355069637 789.49528124928474 176.19899003952742 380.01106484234333 3.6987676694989196 41.962436124682426 349.78835259377956 30.939197815954685 1464.2271696850657 43.987014971673489 11.267205104231833 16.589285269379616 6774.0666867643595 15.873292669653891 11.088884547352789 3.8504949212074271 20.268567770719528 2979.2334025651217 33.422742590308189 173.79578332602978 58.126639559864998 71.64758687466383 10.15687710046768 118.65148533880711 8.3963671624660474 21.225997269153595 1.595371939241885 25.161770075559616
leaf_count=46 2636 233 121 4249 2468 5162 25 579 5236 160 8071 261 52 85 102664 93 65 16 85 16162 142 907 260 406 122 1740 36 170 20 107
internal_value=0.000787953 0.0301419 -0.0510044 -0.0172253 -0.04197 0.0485236 0.0182612 0.0506787 0.0449951 0.0349225 -0.063715 -0.00897909 0.0514138 0.042004 0.0517794 0.0519745 0.0519768 0.0521929 0.0273429 -0.0634383 -0.0542631 -0.0377737 0.0185143 -0.0762803 -0.0629639 0.0456323 0.0548939 0.0470413 0.0498329 -0.0332129
internal_weight=14172.8 9045.89 5126.86 1379.41 986.92 7564.41 502.886 7061.53 392.493 427.54 1481.48 85.9495 6975.58 396.6 6945.57 6934.31 369.274 6918.43 144.366 3747.45 768.215 265.345 91.5494 75.3464 502.87 124.097 358.185 197.425 120.247 30.0055
internal_count=152379 119805 32574 12345 6887 111501 5838 105663 5458 5407 8304 840 104823 5247 104670 104618 5337 104525 1861 20229 4067 1309 402 431 2758 1776 5272 2638 1760 153
is_linear=0
shrinkage=0.05


Tree=24
num_leaves=31
num_cat=0
split_feature=17 6 47 45 6 1 2 8 5 7 59 83 1 9 15 0 3 8 9 0 6 2 7 43 7 11 0 0 0 2
split_gain=8122.74 5924.76 1385.86 676.39 194.011 295.199 191.135 143.894 102.877 86.2649 73.7905 59.2253 55.7095 145.331 49.9097 37.4373 32.0379 27.6527 69.583 27.3521 25.6062 24.1418 49.8478 150.613 45.8613 59.0134 30.3397 24.0228 20.1702 19.6328
threshold=1.0000000180025095e-35 1.0615195729588327 1.0000000180025095e-35 1.0000000180025095e-35 -0.042414688175879428 -0.12913479521928609 -0.013945395923756774 0.030044657416213826 -0.0067976713153740523 0.15605717130190166 1.0000000180025095e-35 1.0000000180025095e-35 4.3948625492726174 -0.040406588269244918 1.0000000180025095e-35 0.49555065861544906 -0.015453368073400179 -0.0070504770914588026 -0.038523339231960003 0.03882082067254191 -0.10346174409116304 -0.014080235173064774 -0.031788347884211247 1.0000000180025095e-35 -0.028410188753603061 0.20230775745339041 1.1232023035708314 0.5981143656822886 -2.1025086108412698 -0.002969521643163121
decision_type=2 2 2 2 2 2 2 2 2 2 2 2 2 2 2 2 2 2 2 2 2 2 2 2 2 2 2 2 2 2
left_child=2 4 3 21 7 8 17 11 10 -3 -6 -2 14 20 -13 -8 -7 18 -5 -11 -14 22 -1 -24 25 26 -25 -20 -23 -4
right_child=1 9 29 6 5 16 15 -9 -10 19 -12 12 13 -15 -16 -17 -18 -19 27 -21 -22 28 23 24 -26 -27 -28 -29 -30 -31
leaf_value=-0.063525783571186406 -0.065923526655642856 -0.064722928284828105 0.053313085064814691 0.050284178826562692 0.046362538963132527 -0.20914600974584016 0.034376916666132976 -0.065404305128602069 -0.053504954996037891 0.048263065917182719 -0.062985848928487895 0.052328956365178786 -0.082672410129472879 -0.080675821739107215 -0.033424901924224884 -0.058441084962200941 -0.066249406702848262 0.054017910523022787 0.038054209583544552 -0.04966422948442635 0.049465298830919262 -0.012712364319882825 -0.066288223394886978 0.05746793086979634 -0.060982476895655592 -0.046959440644608934 -0.07663021461875151 -0.069363133456009793 -0.063890018048537542 -0.036181823674965148
leaf_weight=478.07623142004013 10.770138561725615 1397.0752419680357 308.6220822148025 56.029096893966198 361.19798716902733 4.1577199772000304 12.567865557968615 26.547911837697029 30.688307419419289 22.462570279836655 16.116618990898132 6523.7811978384852 3.7868160009384146 28.36842879652977 17.011734634637833 80.120974957942963 69.326098449528217 133.52078782767057 6.757378593087199 10.446773260831831 115.23358782380819 19.356335505843163 168.08028249442577 61.662064075469971 18.893886387348175 21.555220887064934 4.5277145206928244 22.655447199940681 3591.5922030806541 6.2522389218211165
leaf_count=2639 51 7944 4918 812 5141 26 128 143 160 293 85 103355 16 123 97 477 405 1991 37 57 1760 86 907 260 87 99 20 105 20117 40
internal_value=0.000787768 0.0301304 -0.0499973 -0.0568353 0.0485768 0.0179165 0.0143278 0.0507718 0.0345315 -0.0628381 0.0416918 0.0512323 0.0514209 0.0210216 0.0521059 -0.0458557 -0.0743345 0.039804 0.0175917 0.0171769 0.0452611 -0.0619176 -0.0537725 -0.0367995 0.00967953 0.024895 0.0482949 -0.0446848 -0.0636157 0.051536
internal_weight=13627.2 8636.97 4990.27 4675.4 7206.99 481.487 311.652 6725.5 408.003 1429.98 377.315 6698.95 6688.18 147.389 6540.79 92.6888 73.4838 218.963 85.4419 32.9093 119.02 4363.74 752.795 274.719 106.639 87.745 66.1898 29.4128 3610.95 314.874
internal_count=152379 119656 32723 27765 111362 5817 3550 105545 5386 8294 5226 105402 105351 1899 103452 605 431 2945 954 350 1776 24215 4012 1373 466 379 280 142 20203 4958
is_linear=0
shrinkage=0.05


Tree=25
num_leaves=31
num_cat=0
split_feature=17 6 46 45 6 1 2 39 1 1 7 14 6 15 1 9 5 58 1 6 20 2 7 43 7 11 2 1 11 2
split_gain=7628.25 5586.64 1296.72 632.453 187.595 275.081 179.318 118.673 85.9168 82.7985 81.2553 53.8435 53.099 38.7574 33.9683 102.819 32.2445 41.5956 28.555 24.9283 24.1522 23.969 48.5573 142.503 41.9171 53.1062 19.9098 19.8699 19.4247 18.7876
threshold=1.0000000180025095e-35 1.0615195729588327 1.0000000180025095e-35 1.0000000180025095e-35 -0.042414688175879428 -0.24407025457044179 -0.014020266515595419 1.0000000180025095e-35 -0.24407025457044179 -0.12913479521928609 0.15605717130190166 -0.0051716168284587248 -0.093287234771949099 1.0000000180025095e-35 4.3948625492726174 -0.040406588269244918 -0.0069434183411504133 1.0000000180025095e-35 -0.037501908724727806 -0.10346174409116304 1.0000000180025095e-35 -0.014080235173064774 -0.031788347884211247 1.0000000180025095e-35 -0.028410188753603061 0.20230775745339041 -0.012654905418891521 -0.29892092606366333 0.20230775745339041 -0.002969521643163121
decision_type=2 2 2 2 2 2 2 2 2 2 2 2 2 2 2 2 2 2 2 2 2 2 2 2 2 2 2 2 2 2
left_child=2 4 29 21 7 13 28 11 -9 16 -3 14 -8 -6 -2 19 17 -7 -11 -16 -12 22 -4 -24 25 -25 -21 -23 -5 -1
right_child=1 10 3 6 5 9 12 8 -10 18 20 -13 -14 -15 15 -17 -18 -19 -20 26 -22 27 23 24 -26 -27 -28 -29 -30 -31
leaf_value=0.053109487663156957 0.052048974203731752 -0.063797586164907688 -0.062493284004286331 0.045411902005785959 0.051373136839378344 -0.061691121176273622 -0.057706620150235734 0.044398105073093795 -0.058376186140996426 -0.21379170204013437 -0.054399200837727771 -0.04049061622444123 0.028953356655520724 -0.058792180928774508 -0.079477097819794729 -0.079431482526639854 -0.052787718698358299 0.028764568904916871 -0.065373672791342485 0.051753793737597614 0.043299765276591656 -0.012085409861729068 -0.065243621010343186 0.045471218722395998 -0.059269557281281249 -0.045327308215776713 -0.12030475729596975 -0.062903216357755989 -0.034452097308521716 -0.033888677574341386
leaf_weight=294.66742533072829 6198.6151793338358 1347.7228102535009 462.08206415176392 188.91479554772377 276.93797283992171 15.644142359495161 81.592291265726089 38.824837449938059 42.70031350851059 3.4022457003593436 8.6793069094419462 15.943211331963537 22.564620725810528 8.2207053601741773 3.9033812284469596 19.530949294567108 25.15897436439991 67.741507705301046 68.284441515803337 108.71652907133102 23.328707680106163 19.342809766530991 162.37738929688931 66.758571997284889 18.478529021143913 21.223340705037117 1.7077470943331707 3468.6572826653719 7.9333774596452704 6.3392174169421187
leaf_count=4918 102748 7944 2639 2761 4425 85 445 579 261 20 46 95 284 46 17 85 126 704 411 1740 304 86 907 280 87 99 20 20117 60 40
internal_value=0.000787268 0.0299141 -0.0492085 -0.0559004 0.0482913 0.0176365 0.0141212 0.05051 -0.00943184 -0.0307161 -0.0619276 0.0512798 -0.0389325 0.0481972 0.0515108 0.0265911 -0.00317505 0.011794 -0.0724176 0.0447032 0.0168077 -0.0608962 -0.0526634 -0.0357677 0.0091901 0.0235684 0.0490929 -0.0626214 0.0421932 0.0512773
internal_weight=13096 8275.06 4820.93 4519.93 6895.33 465.39 301.005 6429.94 81.5252 180.231 1379.73 6348.42 104.157 285.159 6332.47 133.859 108.545 83.3857 71.6867 114.328 32.008 4218.92 730.92 268.838 106.46 87.9819 110.424 3488 196.848 301.007
internal_count=152379 119656 32723 27765 111362 5817 3550 105545 840 1346 8294 104705 729 4471 104610 1862 915 789 431 1777 350 24215 4012 1373 466 379 1760 20203 2821 4958
is_linear=0
shrinkage=0.05


Tree=26
num_leaves=31
num_cat=0
split_feature=17 6 46 44 6 1 8 9 8 1 6 83 1 9 15 15 0 0 6 3 0 6 39 8 0 6 3 3 80 9
split_gain=7166.92 5269.22 1214.11 592.743 180.95 258.826 136.96 135.403 131.888 76.8252 74.8364 57.811 51.8229 127.34 45.7529 36.546 33.0854 25.6799 25.0382 22.9889 22.5401 22.5214 17.805 44.2989 17.7162 15.8533 15.0776 557.773 14.2229 12.9902
threshold=1.0000000180025095e-35 1.0615195729588327 1.0000000180025095e-35 1.0000000180025095e-35 -0.042414688175879428 -0.24407025457044179 -0.0070504770914588026 -0.038681595453580582 0.030044657416213826 -0.12913479521928609 1.1225666288741165 1.0000000180025095e-35 4.3948625492726174 -0.040406588269244918 1.0000000180025095e-35 1.0000000180025095e-35 0.50272108867967658 0.03882082067254191 0.049155895697046002 -0.015455185705369292 0.49555065861544906 -0.10346174409116304 1.0000000180025095e-35 0.0053145677444320708 -2.1025086108412698 -0.083112725452735167 -0.01541539058119701 -0.015403906451937602 1.0000000180025095e-35 0.097893523804981078
decision_type=2 2 2 2 2 2 2 2 2 2 2 2 2 2 2 2 2 2 2 2 2 2 2 2 2 2 2 2 2 2
left_child=2 4 25 6 8 15 7 -4 11 16 -3 -2 14 21 22 -6 18 -12 -7 -11 -9 -14 26 -24 -5 -1 -13 -28 -16 -20
right_child=1 10 3 24 5 9 -8 20 -10 19 17 12 13 -15 28 -17 -18 -19 29 -21 -22 -23 23 -25 -26 -27 27 -29 -30 -31
leaf_value=0.052564563025917638 -0.065471730515180862 -0.062913502319624628 0.044228569059871325 -0.023606698238710009 0.051083111229869804 0.046800121143960198 0.049847610906074223 0.02562436275592276 -0.063271688509421095 -0.18900543401801773 0.047394321415714064 0.052473520190066861 -0.077843349145552784 -0.076373181490058784 -0.054537237106459739 -0.056975600301666665 -0.036610603305990808 -0.050186632144845568 -0.050571671072204075 -0.063576048746901662 -0.061174448990591157 0.048733762404155223 0.046050164496016184 -0.069231326633702239 -0.060239404232106969 -0.038490680455533985 -0.57269966521988247 0.053282340587878521 0.058008167643297304 0.019688049366761461
leaf_weight=282.85522272437811 10.687452524900435 1299.2202939689159 54.714666496962309 33.276184245944023 264.8895729072392 36.665756832808256 138.67388927936554 8.1583008170127851 25.482163518667221 3.8667781800031653 20.884523417800668 5782.2787759751081 3.6349080801010123 27.188550233840942 13.264831349253656 8.062730208039282 43.506485104560852 9.9565008729696256 13.801231406629087 66.102831341326237 89.885274693369865 105.81424632668495 40.818037521094084 10.470929715782402 4042.3949498385191 4.8624210059642783 3.6660958640277377 121.31466551497579 3.5607485622167578 12.571212418377398
leaf_count=4936 51 7945 827 148 4425 425 2186 44 143 21 293 100518 16 123 67 46 287 56 87 410 493 1760 632 56 24067 22 47 2102 30 116
